
float layerconv1_0_weight[8][3][3][3] =
    {{{{0.2232, 0.1686, 0.3131},
       {-0.0458, -0.0094, 0.1315},
       {-0.0396, 0.1066, 0.2982}},

      {{-0.2771, -0.4134, -0.0441},
       {-0.5879, -0.3950, -0.6119},
       {-0.5693, -0.4800, -0.1672}},

      {{-0.0099, 0.1413, 0.1623},
       {-0.1846, 0.0810, -0.1434},
       {-0.1094, 0.0333, -0.0793}}},

     {{{0.2221, 0.4476, 0.3670},
       {0.2662, 0.2668, 0.3534},
       {0.3355, 0.3631, 0.6236}},

      {{-0.4033, -0.3998, -0.4740},
       {-0.4546, -0.4023, -0.2525},
       {-0.0191, -0.0249, -0.1034}},

      {{-0.2206, -0.2477, -0.2018},
       {-0.1339, -0.2205, -0.1587},
       {-0.0546, 0.0134, -0.0460}}},

     {{{-0.0392, -0.0496, -0.3670},
       {0.1667, 0.0871, -0.3426},
       {0.3137, 0.1472, 0.0354}},

      {{0.0548, -0.0175, -0.1186},
       {-0.0238, -0.0482, 0.0119},
       {0.1559, -0.1993, -0.1148}},

      {{0.2751, -0.0427, -0.1665},
       {0.0912, 0.0891, -0.2867},
       {0.2981, -0.1343, -0.1220}}},

     {{{-0.1812, -0.1510, -0.0023},
       {-0.0107, 0.0199, -0.0227},
       {-0.1076, -0.0122, -0.1058}},

      {{0.1210, 0.2754, 0.0104},
       {0.2053, 0.2617, 0.1442},
       {0.0378, 0.2415, 0.1662}},

      {{-0.3523, -0.0441, -0.0293},
       {-0.3017, -0.1662, -0.3022},
       {-0.2122, -0.1130, -0.3903}}},

     {{{-0.1742, -0.1102, -0.3071},
       {-0.1105, -0.3667, -0.1896},
       {-0.2476, -0.3709, -0.4230}},

      {{-0.2019, -0.5953, -0.5350},
       {-0.2531, -0.4892, -0.5685},
       {-0.3551, -0.5635, -0.4818}},

      {{0.5416, 0.4617, 0.2857},
       {0.6017, 0.4789, 0.4928},
       {0.5706, 0.5132, 0.2382}}},

     {{{0.0066, -0.0273, 0.0709},
       {0.0152, 0.0912, -0.0385},
       {0.1491, 0.3958, 0.2681}},

      {{-0.3159, -0.3951, -0.7031},
       {-0.6507, -0.5411, -0.7230},
       {-0.3676, -0.4001, -0.2707}},

      {{0.1787, -0.1503, 0.0272},
       {0.0856, 0.0758, -0.1147},
       {0.3562, 0.1894, 0.1615}}},

     {{{-0.5937, -0.7787, -0.7305},
       {-0.5941, -0.4838, -0.3710},
       {-0.5984, -0.3887, -0.6302}},

      {{0.2943, 0.3021, 0.4940},
       {0.1551, 0.2023, 0.2241},
       {0.2745, 0.2554, 0.4656}},

      {{0.1081, -0.1163, -0.0558},
       {-0.1154, 0.0611, 0.1531},
       {0.2670, 0.1129, 0.1473}}},

     {{{0.3189, -0.0289, 0.3337},
       {0.0219, 0.1967, 0.0804},
       {0.1504, 0.0958, -0.0889}},

      {{-0.4168, -0.3246, -0.2840},
       {-0.5869, -0.7862, -0.7183},
       {-0.5194, -0.3161, -0.4642}},

      {{-0.0219, 0.1177, 0.1306},
       {0.1526, -0.0589, -0.1226},
       {-0.0216, 0.1782, -0.0262}}}};

float layerconv1_0_bias[8] =
    {0.2397, -0.0315, -0.3360, 0.2160, 0.1079, 0.3699, 0.0516, 0.4074};

float layerconv2_0_weight[14][8][3][3] =
    {{{{2.4107e-01, 3.1139e-01, 3.5569e-01},
       {3.0963e-01, 4.5079e-01, 3.3821e-01},
       {1.3871e-01, 2.7040e-01, 2.9387e-01}},

      {{-1.2153e-02, 1.1143e-01, 1.3510e-01},
       {1.0922e-01, 2.5793e-01, 2.4975e-01},
       {6.4048e-02, 2.3441e-01, 2.6945e-01}},

      {{1.0294e-01, 1.4392e-01, 1.1659e-01},
       {2.1733e-01, 2.3690e-01, -1.1408e-02},
       {8.5310e-02, 1.2493e-01, 1.3409e-01}},

      {{-1.1300e-01, -1.8543e-01, -1.2453e-01},
       {-8.8815e-02, -1.5142e-01, -1.9545e-01},
       {-8.8396e-02, -4.1060e-02, 5.5973e-02}},

      {{5.9655e-02, -2.0677e-02, -1.5183e-01},
       {-1.1837e-01, 6.1412e-03, -1.6041e-01},
       {-1.6384e-01, -6.5583e-02, -1.5112e-01}},

      {{1.5970e-01, 3.2270e-01, 3.0945e-01},
       {1.9113e-01, 3.5877e-01, 3.4625e-01},
       {3.8772e-01, 2.2535e-01, 3.6487e-01}},

      {{1.4945e-01, 2.0854e-01, 8.6704e-02},
       {3.6415e-02, 5.8920e-02, 1.2733e-01},
       {4.1144e-02, 6.0199e-02, 1.2074e-01}},

      {{4.8813e-01, 3.4006e-01, 2.9518e-01},
       {3.6617e-01, 4.5828e-01, 4.3120e-01},
       {3.1586e-01, 2.3915e-01, 1.7458e-01}}},

     {{{1.5653e-01, 2.3514e-01, 2.7369e-01},
       {1.8531e-01, 2.8135e-01, 1.6109e-01},
       {2.8854e-01, 1.7338e-01, 1.9403e-01}},

      {{3.8768e-01, 3.6587e-01, 3.0101e-01},
       {3.3376e-01, 5.0685e-01, 4.0654e-01},
       {3.6744e-01, 4.3423e-01, 3.2301e-01}},

      {{-3.0707e-01, -2.9231e-01, -6.3809e-03},
       {-1.7221e-01, -1.0456e-01, -1.6538e-01},
       {-3.0963e-01, -1.9048e-01, -1.6977e-01}},

      {{-3.9678e-01, -3.0663e-01, -3.1516e-01},
       {-2.4437e-01, -3.2311e-01, -2.7252e-01},
       {-2.3149e-01, -1.7850e-01, -2.1813e-01}},

      {{-2.1860e-01, -1.1008e-01, -1.4258e-01},
       {-2.5801e-01, -2.4079e-01, -6.3295e-02},
       {-1.4806e-01, -2.4441e-01, -1.7858e-02}},

      {{3.6768e-01, 2.7505e-01, 2.2370e-01},
       {2.1717e-01, 3.1701e-01, 1.8347e-01},
       {2.6579e-01, 2.8782e-01, 3.6588e-01}},

      {{-6.4649e-01, -5.4987e-01, -6.7011e-01},
       {-6.1548e-01, -6.0950e-01, -6.4536e-01},
       {-6.4926e-01, -7.2622e-01, -5.8326e-01}},

      {{2.4312e-01, 2.4786e-01, 2.4709e-01},
       {2.4418e-01, 2.8939e-01, 3.0927e-01},
       {2.7643e-01, 2.4558e-01, 2.3377e-01}}},

     {{{2.6810e-01, 2.0802e-01, 1.6948e-01},
       {2.8871e-01, 8.4465e-02, 2.7250e-01},
       {1.6071e-01, 6.5084e-02, 1.4477e-01}},

      {{5.4785e-01, 5.5948e-01, 5.0951e-01},
       {6.2133e-01, 5.9013e-01, 6.6325e-01},
       {5.2721e-01, 5.8907e-01, 5.7096e-01}},

      {{-1.0211e-01, -5.9515e-02, -1.3261e-01},
       {-1.2411e-01, -5.5816e-02, -1.3958e-01},
       {-2.2623e-01, -1.8448e-01, -1.8997e-01}},

      {{-4.6365e-02, 3.8937e-02, -7.9984e-02},
       {4.2969e-02, -3.3596e-02, 1.9523e-02},
       {9.7230e-03, 1.3139e-01, 1.5808e-01}},

      {{-1.2906e-01, -3.4249e-02, -1.8415e-01},
       {-2.3218e-01, -1.4034e-01, -1.9593e-01},
       {-2.1018e-01, -9.4054e-02, -2.2706e-02}},

      {{2.1308e-01, 1.6020e-01, 7.9246e-02},
       {2.1742e-02, 2.4484e-01, 1.3164e-01},
       {6.6110e-02, 6.8232e-02, 8.6663e-02}},

      {{-8.0537e-01, -7.7205e-01, -6.1448e-01},
       {-7.0900e-01, -6.5552e-01, -7.0040e-01},
       {-7.9046e-01, -6.4738e-01, -5.7229e-01}},

      {{1.6277e-01, 2.4349e-01, 2.4215e-01},
       {2.1017e-01, 3.7474e-02, 1.4115e-01},
       {3.6691e-02, 1.0492e-01, 7.1270e-02}}},

     {{{-2.8115e-01, -2.8146e-01, -1.6610e-01},
       {-2.7885e-01, -2.6627e-01, -2.6961e-01},
       {-6.1919e-02, -8.7296e-02, -8.8878e-02}},

      {{-4.6361e-01, -5.0394e-01, -5.1244e-01},
       {-3.1183e-01, -4.3581e-01, -4.1985e-01},
       {-2.6667e-01, -3.6242e-01, -3.8010e-01}},

      {{-5.0187e-02, 3.7333e-02, 4.3152e-02},
       {-2.1173e-02, -8.0844e-02, 7.9512e-02},
       {1.8387e-02, 7.0455e-02, 1.2655e-01}},

      {{-4.6304e-02, -7.8923e-03, -3.8055e-02},
       {-6.5538e-02, -5.3863e-02, -4.4692e-02},
       {-1.1288e-01, -1.6534e-01, -1.2415e-01}},

      {{3.2069e-01, 3.6516e-01, 3.7133e-01},
       {2.7868e-01, 3.8258e-01, 3.1031e-01},
       {2.5884e-01, 2.6574e-01, 3.4865e-01}},

      {{-2.6796e-01, -2.4572e-01, -8.6527e-02},
       {-2.3971e-01, -5.5736e-02, -7.7819e-02},
       {-5.2581e-02, -4.8973e-02, -3.4321e-02}},

      {{6.3920e-01, 7.0162e-01, 7.4990e-01},
       {8.0019e-01, 7.0231e-01, 7.5305e-01},
       {7.4047e-01, 6.7026e-01, 6.7281e-01}},

      {{-8.9639e-02, -2.7994e-01, -2.6570e-01},
       {-2.2798e-01, -2.4870e-01, -1.4261e-01},
       {-9.8479e-02, -1.3745e-01, -1.1459e-01}}},

     {{{-2.0458e-01, -1.4064e-01, -8.3287e-02},
       {-6.4277e-03, -8.9629e-02, -1.9183e-01},
       {-2.3098e-02, -1.4368e-01, -1.0692e-01}},

      {{-1.9022e-01, -1.7157e-01, -2.3289e-01},
       {-1.1831e-01, -8.5594e-02, -4.2736e-02},
       {-6.1699e-02, -1.4255e-01, -2.4791e-01}},

      {{-7.8477e-02, -1.4137e-01, -4.2030e-02},
       {-2.7562e-02, -1.2548e-01, -2.5919e-02},
       {-4.4366e-02, -1.8861e-01, -1.1409e-01}},

      {{-1.7954e-01, -1.1881e-01, 2.1142e-03},
       {-2.8231e-02, -1.8511e-01, -8.0269e-02},
       {5.7114e-03, -9.4560e-02, -1.7433e-01}},

      {{1.0091e-01, -8.8383e-02, -5.0471e-03},
       {-5.9641e-02, -8.2749e-02, 6.8385e-02},
       {-7.6897e-02, 5.4428e-02, 9.3072e-03}},

      {{-5.5613e-02, 2.4695e-02, -1.7341e-01},
       {2.4688e-02, -1.5618e-01, 2.8459e-02},
       {4.4149e-02, -5.0798e-02, -1.4126e-02}},

      {{-1.9386e-01, -1.5293e-01, -1.9302e-01},
       {-2.3024e-01, -1.7640e-01, -2.9775e-01},
       {-1.1251e-01, -1.4849e-01, -2.8001e-01}},

      {{-1.2150e-01, -1.1413e-01, -2.0768e-02},
       {-6.5552e-02, 6.7032e-02, -5.1474e-02},
       {-7.4326e-03, 8.3251e-02, 5.8262e-02}}},

     {{{1.6252e-01, 6.2079e-02, 2.0829e-01},
       {2.2111e-01, 1.9238e-01, 9.2082e-02},
       {1.5834e-01, 2.3643e-01, 1.3668e-01}},

      {{3.6691e-01, 3.6680e-01, 4.8619e-01},
       {5.4420e-02, 2.1355e-01, 1.7003e-01},
       {-8.7073e-03, 4.1757e-02, 1.9003e-01}},

      {{-3.4188e-01, -9.6710e-02, -5.3361e-02},
       {-3.2941e-01, -1.3304e-01, -7.6725e-02},
       {-2.8365e-01, -1.9018e-01, -1.5760e-01}},

      {{-6.1632e-01, -5.8007e-01, -6.5038e-01},
       {-5.7214e-01, -5.3909e-01, -6.8048e-01},
       {-6.4144e-01, -6.1880e-01, -6.5296e-01}},

      {{-1.8683e-01, -2.2341e-01, -1.8144e-01},
       {-2.2230e-01, -1.1182e-01, -1.2995e-01},
       {-2.5925e-01, -3.1362e-01, -2.3393e-01}},

      {{3.7554e-01, 2.7361e-01, 4.1831e-01},
       {2.5574e-01, 1.5595e-01, 3.4158e-01},
       {2.1899e-01, 1.3620e-01, 3.0877e-01}},

      {{-6.0085e-01, -6.9194e-01, -6.6254e-01},
       {-6.4783e-01, -6.6794e-01, -6.5223e-01},
       {-7.2679e-01, -7.0307e-01, -4.8866e-01}},

      {{1.3669e-01, 1.4530e-01, 2.9920e-01},
       {1.8290e-01, 8.6447e-02, 1.1662e-01},
       {1.4555e-01, 2.3005e-01, 1.7897e-01}}},

     {{{3.0666e-01, 3.8296e-01, 3.7310e-01},
       {3.4284e-01, 3.3848e-01, 1.7197e-01},
       {2.2205e-01, 3.4065e-01, 2.5297e-01}},

      {{8.3162e-02, 6.5823e-02, 2.9924e-01},
       {2.5676e-01, 2.3659e-01, 2.7385e-01},
       {3.7770e-01, 2.6369e-01, 3.6506e-01}},

      {{2.4539e-01, 1.5771e-01, 8.3098e-02},
       {3.3538e-01, 1.5820e-01, 2.1767e-01},
       {3.0425e-01, 2.2494e-01, 9.0465e-02}},

      {{-3.8269e-02, -1.7794e-01, -1.8673e-01},
       {-1.6025e-01, -3.7309e-01, -3.0355e-01},
       {-1.6196e-01, -1.5385e-01, -9.5001e-02}},

      {{6.1853e-01, 6.6597e-01, 6.9197e-01},
       {7.0900e-01, 6.0228e-01, 6.1161e-01},
       {6.3094e-01, 5.8869e-01, 4.7097e-01}},

      {{4.0689e-01, 3.4124e-01, 2.7661e-01},
       {5.1557e-01, 3.9805e-01, 4.8517e-01},
       {4.6183e-01, 4.8610e-01, 4.4645e-01}},

      {{-5.1614e-02, 3.1279e-02, -9.1885e-02},
       {-1.8263e-02, -1.2234e-02, -1.1144e-02},
       {1.8682e-01, 7.2344e-02, 9.0164e-02}},

      {{3.2559e-01, 4.6848e-01, 3.9567e-01},
       {4.8437e-01, 3.5768e-01, 5.2520e-01},
       {3.8995e-01, 3.6813e-01, 3.7583e-01}}},

     {{{-9.5506e-02, 2.4917e-02, -4.4182e-02},
       {-1.1315e-01, -1.8898e-01, -9.0013e-02},
       {-6.5475e-02, -1.1905e-01, 2.3260e-02}},

      {{3.4370e-02, -1.1297e-01, -1.3822e-01},
       {-1.4065e-01, -1.0448e-01, -1.5034e-01},
       {3.9500e-02, -2.3925e-02, -3.3449e-02}},

      {{-1.2650e-01, 5.2945e-02, -1.0263e-01},
       {-7.1558e-02, -7.9562e-02, 5.0195e-02},
       {1.2220e-02, -8.4770e-02, 9.7517e-03}},

      {{-1.8236e-01, -9.5606e-02, -1.8447e-01},
       {-1.7320e-01, -1.5861e-01, -2.7200e-02},
       {-1.4415e-01, 1.2257e-02, -2.2637e-02}},

      {{-4.5463e-02, -7.5984e-02, -8.9046e-02},
       {5.5248e-02, 5.3611e-02, -4.7161e-02},
       {-8.3691e-02, -1.1533e-01, -4.7591e-02}},

      {{4.5699e-02, -1.0355e-01, -1.0030e-01},
       {-1.8748e-01, -1.8068e-01, -1.1215e-01},
       {-9.6378e-02, -1.4927e-01, -3.6024e-02}},

      {{-1.0042e-01, -1.1939e-01, -1.9130e-01},
       {-1.2228e-01, -1.4293e-01, -2.8689e-03},
       {-1.2388e-01, -1.2416e-01, -1.0638e-01}},

      {{-7.7005e-04, -8.0827e-02, -4.7371e-02},
       {-6.0882e-02, -2.0196e-02, 1.3753e-02},
       {2.7776e-02, -8.1407e-02, -6.1056e-02}}},

     {{{-7.3149e-02, -6.5922e-02, 3.6323e-02},
       {-1.2977e-01, -1.2245e-01, -9.7430e-02},
       {-8.7022e-02, -8.0636e-02, -6.5409e-02}},

      {{-7.9415e-02, -1.9121e-01, -1.1273e-01},
       {-7.6533e-03, -1.8692e-02, -4.3809e-02},
       {-6.5882e-03, -1.3562e-01, -1.1596e-01}},

      {{5.0704e-02, -9.7657e-02, -7.7014e-02},
       {-1.6516e-01, -1.6693e-01, -5.5076e-02},
       {-1.1429e-01, -1.6009e-01, -1.3511e-01}},

      {{-2.9875e-02, -5.3136e-02, -9.0004e-02},
       {-1.5035e-01, -1.8802e-01, -1.4071e-02},
       {3.1753e-02, -2.0249e-01, -1.5001e-01}},

      {{-9.5842e-02, -1.8500e-02, -1.2790e-02},
       {-1.3027e-01, 7.3459e-03, 6.4318e-02},
       {1.0631e-02, -1.1279e-01, -7.3107e-02}},

      {{-1.3819e-01, -1.0239e-02, -5.0657e-02},
       {-1.8717e-01, 3.1922e-02, -9.9508e-02},
       {-1.1969e-01, -1.9697e-02, -7.4377e-02}},

      {{-6.2849e-02, 3.5378e-02, 4.7249e-02},
       {-7.7620e-02, -3.1506e-02, -9.9640e-02},
       {-1.0665e-02, -3.8120e-02, -5.5719e-02}},

      {{-5.6917e-02, 4.7421e-02, -8.3123e-02},
       {-2.1855e-01, -4.3855e-02, -5.9116e-02},
       {-1.3229e-01, -1.4117e-01, 1.0792e-02}}},

     {{{-1.8172e-01, -1.9713e-01, -4.4949e-02},
       {-9.6820e-02, -1.2575e-02, -2.9870e-03},
       {-1.1721e-01, -1.3613e-01, -2.0109e-02}},

      {{8.4751e-02, -1.6146e-02, -3.9960e-02},
       {-7.8419e-02, -8.7985e-03, 6.6383e-02},
       {5.3973e-02, 3.8288e-02, -1.0539e-01}},

      {{-2.5536e-02, -1.6338e-01, -1.4728e-02},
       {4.3086e-02, 2.1238e-02, -1.0786e-02},
       {-5.9132e-02, 1.7993e-02, -2.0695e-02}},

      {{-1.5180e-01, -4.8031e-02, 6.5009e-02},
       {-9.4689e-02, -1.5846e-01, -8.6898e-02},
       {-1.0911e-01, -3.8676e-02, -1.2039e-01}},

      {{-1.0981e-01, 1.2608e-02, -7.3062e-02},
       {1.9310e-02, 2.2193e-02, 2.1026e-03},
       {4.0531e-02, 2.5689e-02, 4.6800e-02}},

      {{-1.4040e-01, -1.2794e-01, -1.0386e-01},
       {-4.5852e-02, 2.3705e-03, -4.8158e-02},
       {-5.2503e-02, -1.3125e-01, -6.9245e-02}},

      {{-1.1996e-01, -1.2067e-01, -1.2054e-01},
       {-1.7866e-01, -1.2016e-01, -1.2292e-01},
       {-7.8026e-03, -8.5870e-02, -5.3634e-02}},

      {{-9.9547e-02, -8.1647e-02, 3.9658e-02},
       {-1.1164e-01, 4.3696e-02, -2.3550e-02},
       {-2.9955e-02, -5.2793e-02, -2.1553e-02}}},

     {{{-1.5323e-01, -1.4041e-02, -2.8074e-02},
       {-1.6341e-01, -1.0587e-01, -3.2480e-03},
       {-3.6840e-02, -3.5713e-02, -1.6218e-01}},

      {{-1.4864e-01, 6.5650e-02, -5.4641e-02},
       {6.0062e-02, 2.7368e-02, -5.2484e-02},
       {2.1743e-02, -9.3714e-02, -9.9917e-02}},

      {{-8.2016e-02, -7.6047e-02, -5.3272e-02},
       {-1.2730e-01, -1.3850e-01, 1.2005e-02},
       {-2.1272e-02, -3.7387e-02, -1.5631e-01}},

      {{-5.5886e-02, -1.2422e-01, -1.2429e-01},
       {-1.4352e-01, -8.4033e-02, -4.4349e-03},
       {3.5375e-02, -9.5386e-02, -1.7406e-01}},

      {{-6.7557e-02, -4.1856e-03, 5.3323e-02},
       {1.5394e-02, -4.3367e-02, 3.6849e-02},
       {-1.6543e-01, 3.6902e-02, -1.0875e-01}},

      {{-1.3844e-01, -1.5249e-02, -1.0624e-01},
       {-2.9958e-02, -1.6208e-01, -7.5107e-02},
       {-1.5753e-01, 2.8002e-02, 2.9645e-03}},

      {{-1.4928e-02, -1.4973e-01, 1.0292e-02},
       {-4.5939e-03, 4.9792e-02, -7.1714e-03},
       {-5.8246e-02, -5.4687e-03, 2.9556e-02}},

      {{7.0039e-03, -9.6328e-02, -8.8785e-02},
       {-4.7564e-02, -1.5804e-01, -1.6595e-01},
       {6.6947e-04, -5.3618e-02, -1.7826e-01}}},

     {{{1.6549e-01, 1.6720e-01, 7.6800e-02},
       {3.0408e-02, 3.2837e-02, 4.5295e-02},
       {6.1182e-02, 1.7202e-01, 1.4204e-01}},

      {{3.7511e-01, 2.8768e-01, 2.0036e-01},
       {2.4687e-01, 4.2093e-01, 3.7600e-01},
       {3.6606e-01, 4.6060e-01, 3.0242e-01}},

      {{-1.7767e-01, -2.8696e-01, -4.7668e-02},
       {-2.3614e-01, -2.6875e-01, -1.2803e-01},
       {-2.2221e-01, -1.3107e-01, -7.8338e-02}},

      {{-1.3090e-01, -1.3196e-01, -2.7740e-02},
       {2.2328e-02, -1.3459e-01, 4.6343e-03},
       {6.2310e-02, -9.2069e-02, -4.8879e-02}},

      {{-3.2814e-01, -1.1230e-01, -1.9350e-02},
       {-1.4041e-01, -2.3254e-01, -7.9590e-02},
       {-2.5032e-01, -5.6922e-02, -5.5041e-02}},

      {{3.2542e-02, 2.2412e-01, 1.6582e-01},
       {1.7846e-01, 2.1052e-01, 2.0732e-01},
       {1.8853e-01, 1.1351e-02, 5.6071e-02}},

      {{-5.7509e-01, -5.6633e-01, -6.4301e-01},
       {-4.9914e-01, -6.5771e-01, -5.3377e-01},
       {-4.7469e-01, -7.1976e-01, -4.8906e-01}},

      {{1.6685e-01, 1.5971e-01, 1.0794e-01},
       {1.1763e-01, 1.8808e-01, 1.6048e-01},
       {1.4182e-01, 3.1998e-02, 9.2217e-02}}},

     {{{-2.8058e-02, 1.0622e-01, 1.4730e-02},
       {9.5302e-03, 6.1809e-02, -8.7279e-02},
       {-8.5268e-02, 2.4080e-02, 2.3516e-02}},

      {{-2.2093e-01, -1.3075e-01, -2.4901e-01},
       {-1.8895e-01, -1.6770e-01, -5.9993e-02},
       {-1.4068e-01, -8.8874e-02, -1.8014e-02}},

      {{6.9478e-03, 5.2264e-02, -1.1318e-01},
       {-6.9674e-02, -3.7273e-02, -3.6688e-02},
       {-1.4424e-02, -1.4431e-02, -1.4495e-01}},

      {{7.6548e-02, 6.2461e-03, 1.7640e-03},
       {-1.3453e-02, 1.2926e-02, -5.4463e-02},
       {1.8881e-03, -6.2001e-02, 1.3385e-01}},

      {{-6.9242e-03, -9.6332e-02, 5.4657e-02},
       {-9.8971e-02, -1.0972e-01, -8.4188e-02},
       {-1.7090e-01, -6.3573e-02, 5.3983e-02}},

      {{-2.2232e-01, -1.4309e-01, -6.6804e-04},
       {-1.1487e-01, -3.4214e-02, -8.4116e-02},
       {-4.5850e-02, -1.8573e-01, -1.2442e-01}},

      {{-2.4727e-02, -1.5025e-01, -7.3522e-02},
       {1.5595e-02, -1.5362e-01, 4.1780e-02},
       {2.6818e-02, -4.0058e-02, -8.7261e-02}},

      {{-6.1725e-02, -1.4608e-01, -7.2588e-02},
       {-1.4621e-01, 2.2958e-02, -1.0902e-01},
       {-1.5420e-01, -7.6261e-02, -8.2695e-02}}},

     {{{1.8507e-01, 3.9768e-01, 4.5540e-01},
       {3.1863e-01, 2.9291e-01, 4.4362e-01},
       {2.5227e-01, 3.6886e-01, 2.8929e-01}},

      {{1.2732e-02, 1.9971e-01, 2.0988e-01},
       {6.5572e-02, 2.4516e-01, 1.7467e-01},
       {2.3149e-01, 1.8897e-01, 2.4720e-01}},

      {{2.9505e-01, 1.5867e-01, -1.7066e-01},
       {3.5092e-01, 1.3572e-01, -8.7408e-02},
       {2.0202e-01, 1.3734e-01, 1.2622e-01}},

      {{-1.0162e-01, -1.4912e-02, -4.4853e-02},
       {-4.2634e-02, -2.5671e-01, -2.0486e-01},
       {-2.2580e-01, -1.8860e-01, -2.3594e-01}},

      {{5.2209e-01, 5.4901e-01, 5.0267e-01},
       {6.6880e-01, 5.3996e-01, 4.8514e-01},
       {7.3855e-01, 5.3019e-01, 4.4498e-01}},

      {{3.5437e-01, 2.9465e-01, 3.2290e-01},
       {5.2532e-01, 4.5029e-01, 5.2135e-01},
       {3.4265e-01, 5.2972e-01, 4.9266e-01}},

      {{-1.6734e-01, -1.7802e-01, -7.7566e-02},
       {-2.7101e-02, 7.6319e-02, -3.4437e-02},
       {-6.1688e-02, 1.5769e-01, 3.9601e-02}},

      {{4.4186e-01, 4.6823e-01, 3.9674e-01},
       {5.0847e-01, 4.0373e-01, 5.0223e-01},
       {4.7191e-01, 5.0503e-01, 4.0819e-01}}}};

float layerconv2_0_bias[14] =
    {-0.0626, -0.3366, -0.3272, -0.1118, 0.0943, -0.1574, -0.1757, -0.0472,
     -0.1819, -0.1067, -0.0491, -0.2175, 0.2287, 0.0276};

float layerconv3_0_weight[24][14][3][3] =
    {{{{1.8209e-01, 1.5153e-01, 1.6255e-01},
       {9.6539e-02, 2.3153e-01, 9.4408e-02},
       {1.9127e-01, 1.3394e-01, 1.9695e-01}},

      {{9.4380e-03, -4.9793e-03, -1.4280e-03},
       {-4.5059e-02, 5.6129e-02, -1.2435e-03},
       {1.0222e-01, 9.8866e-02, 6.0830e-02}},

      {{5.3769e-02, -2.6238e-02, -8.1224e-02},
       {5.0889e-02, 2.0612e-02, 4.4079e-02},
       {1.8949e-02, -5.6095e-02, 2.8002e-02}},

      {{-8.7353e-02, 5.5812e-02, -1.5842e-02},
       {-8.4316e-02, -7.1265e-02, -3.5285e-02},
       {-1.9212e-01, -1.4976e-01, -2.4195e-01}},

      {{-1.4612e-01, -1.3642e-01, -1.0198e-01},
       {-1.6223e-01, -8.3613e-02, -9.3313e-02},
       {-1.3735e-01, -6.3407e-02, -1.6884e-01}},

      {{-7.8966e-02, 1.7327e-02, -5.3101e-02},
       {7.9308e-02, 3.7903e-02, 5.3089e-02},
       {3.5930e-02, -3.1492e-02, -4.7487e-02}},

      {{3.2041e-02, 1.9176e-01, 1.4197e-01},
       {7.2688e-02, 4.6931e-02, 2.8115e-02},
       {7.2640e-02, 1.0430e-01, 6.0269e-02}},

      {{5.1995e-02, 7.6336e-03, 1.3912e-01},
       {4.2031e-02, 1.8250e-02, 4.2437e-02},
       {1.3075e-01, -1.8754e-02, 9.5323e-02}},

      {{8.7604e-02, -6.1896e-03, 7.7029e-04},
       {-6.6401e-04, 1.2190e-01, 6.8643e-02},
       {-2.4859e-02, -7.8834e-02, 1.0017e-01}},

      {{2.8222e-02, 2.5426e-02, 2.7823e-02},
       {-2.0845e-02, -5.2339e-02, 2.7575e-02},
       {-1.4974e-02, -1.3364e-02, -9.5437e-03}},

      {{1.6154e-02, 6.3357e-03, -6.1170e-02},
       {-1.5861e-02, 2.5699e-02, 3.7865e-02},
       {-8.0753e-02, -3.9573e-02, -8.3137e-02}},

      {{1.9161e-02, 2.7635e-02, -5.5996e-03},
       {-9.9064e-02, -7.4344e-02, -7.0946e-02},
       {1.9329e-02, 5.4342e-02, -7.3877e-02}},

      {{-7.3304e-02, -2.1311e-02, 1.6143e-02},
       {-2.4602e-02, -6.1673e-02, -2.5460e-02},
       {-4.8929e-03, -2.9511e-02, -2.3264e-02}},

      {{-4.5450e-03, 7.4491e-02, 5.8727e-02},
       {-5.9436e-02, 4.6572e-02, 2.1720e-02},
       {-1.1230e-02, 5.6781e-02, -7.1158e-02}}},

     {{{-4.9773e-03, 3.0003e-02, -1.3277e-01},
       {2.9679e-02, -1.3586e-01, -1.3440e-01},
       {-1.5834e-01, -5.1906e-02, 1.2849e-02}},

      {{-6.0905e-02, -9.6029e-02, -1.0940e-01},
       {-6.6274e-02, -1.1743e-02, -8.6879e-02},
       {-2.6149e-02, -3.1172e-02, -6.7323e-02}},

      {{-1.2442e-01, 9.4641e-04, -1.6819e-03},
       {-5.6232e-02, -4.0521e-02, -2.4321e-02},
       {-1.3606e-01, -2.5481e-02, -1.4259e-01}},

      {{-3.5774e-02, -8.6899e-02, -3.6216e-02},
       {-1.2921e-01, -1.1268e-02, 1.1597e-02},
       {-1.0945e-02, -1.0729e-01, -8.2130e-02}},

      {{-9.6206e-02, -1.7028e-02, -8.4649e-02},
       {-5.8498e-02, -1.1244e-01, -1.1083e-02},
       {-3.3053e-02, -1.0851e-01, -2.0828e-02}},

      {{-1.1930e-01, -8.8047e-02, 1.1711e-02},
       {-1.1775e-01, 7.9660e-03, -6.1416e-02},
       {-1.3373e-04, 2.6229e-02, -8.7702e-02}},

      {{-3.6637e-02, -1.3232e-01, -6.4882e-02},
       {-1.4058e-01, -1.4578e-01, 9.3286e-03},
       {-1.4010e-01, 1.2524e-03, -9.8509e-02}},

      {{-2.3632e-02, -3.5314e-02, -4.0595e-02},
       {-8.0280e-02, -1.0964e-01, -1.3171e-01},
       {-9.8685e-02, -1.4720e-02, -1.1016e-01}},

      {{2.6032e-03, 1.9588e-02, -6.4298e-03},
       {-7.7063e-02, -9.4432e-03, -1.5087e-02},
       {-7.1741e-02, -5.3636e-02, -8.4611e-02}},

      {{-8.2636e-02, -1.1338e-01, -2.8887e-02},
       {-6.2302e-02, -3.0419e-02, -3.4820e-02},
       {-7.2454e-02, -3.1356e-02, -3.1064e-02}},

      {{-4.9851e-02, -9.3746e-02, -1.1509e-01},
       {-1.5966e-02, -1.0040e-01, -1.3858e-01},
       {-1.3587e-01, 1.9965e-02, -1.0518e-01}},

      {{-4.1065e-02, -5.6180e-02, 2.5435e-02},
       {-1.2309e-01, -9.6595e-02, -9.7941e-02},
       {-7.2385e-02, -7.6427e-02, -1.2597e-01}},

      {{-9.8924e-03, 1.7088e-02, -1.1259e-01},
       {-2.4471e-02, 2.0627e-02, 4.7668e-03},
       {-5.3134e-02, -1.0717e-01, -1.3260e-01}},

      {{-5.4702e-02, -1.1898e-01, -4.5428e-04},
       {-2.9502e-02, -2.8312e-02, 3.2089e-03},
       {-2.7477e-02, -1.2571e-01, 7.4887e-03}}},

     {{{1.9567e-02, 5.8707e-03, -6.3326e-02},
       {3.3719e-02, -1.2185e-01, 4.0237e-02},
       {-6.0308e-02, -1.3253e-01, -3.0838e-01}},

      {{2.5952e-02, -7.4706e-02, 9.5709e-03},
       {-7.2643e-03, 9.7161e-03, 4.4059e-02},
       {-9.4841e-02, 8.5804e-03, -2.6488e-03}},

      {{-1.5171e-02, -2.7888e-02, -1.1461e-01},
       {-2.5908e-02, 5.5035e-02, 9.3632e-02},
       {-4.5879e-02, -1.3343e-01, -2.3255e-02}},

      {{-2.5757e-02, -9.4508e-02, -2.1485e-01},
       {-1.0644e-01, -3.5321e-02, -3.1698e-01},
       {-1.7559e-01, -2.4586e-01, 9.3318e-02}},

      {{5.0257e-02, 2.2619e-02, 7.9803e-03},
       {-1.2822e-02, 8.8048e-02, 7.8935e-02},
       {1.8817e-02, 1.6134e-02, -2.4568e-02}},

      {{5.6113e-02, 1.2160e-01, -3.5300e-02},
       {9.8363e-02, 1.2020e-01, 1.0778e-02},
       {-4.1037e-02, -5.3612e-02, -4.6951e-02}},

      {{-1.0355e-01, 6.0132e-02, -1.2805e-01},
       {-2.0769e-02, -4.7985e-02, -8.1173e-02},
       {-1.4921e-01, 1.3907e-01, 2.9869e-02}},

      {{9.1356e-02, 6.6247e-02, 4.7856e-02},
       {9.5689e-02, 3.9921e-02, 8.6704e-02},
       {1.0555e-01, 6.2336e-02, -5.3035e-03}},

      {{-3.8702e-02, 8.3092e-02, -5.8949e-02},
       {1.0151e-01, 5.8603e-02, 4.6287e-02},
       {1.6865e-02, -4.3091e-02, 1.9506e-02}},

      {{-4.6903e-03, -6.2346e-03, 3.1380e-02},
       {2.5808e-02, -5.1879e-02, -7.7438e-02},
       {-8.8284e-02, -1.3240e-01, -1.1107e-01}},

      {{-1.2104e-01, -1.5179e-01, -3.5699e-02},
       {-1.5517e-01, 1.7502e-02, -1.2601e-01},
       {-1.3584e-01, -1.5331e-02, -6.8671e-02}},

      {{-3.5379e-02, -5.5613e-02, 1.4383e-02},
       {-1.9180e-02, -1.2056e-02, 9.6317e-03},
       {-9.5703e-02, -8.8626e-02, -1.0739e-01}},

      {{-7.9379e-02, -1.0702e-01, 3.1745e-03},
       {-9.3349e-02, -3.2786e-02, -1.3504e-01},
       {-4.0261e-02, -1.7937e-02, -7.4411e-02}},

      {{-8.7848e-02, -1.4070e-01, -9.0163e-02},
       {-1.3072e-01, -1.1273e-01, -1.0413e-01},
       {-5.7149e-02, -1.1977e-01, -2.5169e-01}}},

     {{{-2.2634e-01, -1.0505e-01, 2.4763e-01},
       {-8.2821e-03, 5.2127e-02, 2.4236e-01},
       {-1.8083e-02, 2.5939e-02, 1.5027e-01}},

      {{-1.8399e-01, -4.5383e-01, 3.5660e-02},
       {-1.7799e-01, -3.7828e-01, -1.0496e-01},
       {-3.8406e-01, -5.2393e-01, -3.5676e-01}},

      {{-3.6932e-02, -3.5700e-01, 1.2539e-01},
       {-2.2409e-01, -1.7331e-01, 1.3829e-01},
       {-1.8520e-01, -4.6834e-01, -2.4523e-01}},

      {{-1.3948e-01, -1.8937e-01, -2.0875e-01},
       {-5.3817e-02, -1.3293e-01, -2.8832e-02},
       {-2.8626e-02, -7.5422e-02, -7.4949e-02}},

      {{2.2902e-01, 2.1662e-01, 1.8538e-01},
       {2.1022e-01, 2.2022e-01, 2.2641e-01},
       {1.3948e-01, 2.7464e-01, 1.2381e-01}},

      {{-2.7277e-01, -5.4377e-01, -4.2150e-01},
       {-1.1041e-01, -6.6565e-01, -4.2111e-01},
       {-1.3894e-01, -6.1218e-01, -5.0831e-01}},

      {{-1.9572e-01, -2.0424e-01, 2.3656e-01},
       {3.2162e-02, 3.1815e-02, 3.0773e-01},
       {-4.2422e-02, -5.3181e-02, 3.8820e-02}},

      {{6.1745e-02, 8.7943e-02, 9.5426e-02},
       {3.8823e-02, 3.1937e-02, -2.2529e-03},
       {6.9883e-02, -2.4806e-02, 1.9732e-02}},

      {{-8.4432e-02, -6.5656e-02, -7.3705e-02},
       {4.1652e-02, -8.7730e-02, -2.7844e-02},
       {-6.5587e-02, 8.9086e-02, -3.3130e-02}},

      {{2.3529e-02, -2.1254e-02, -9.7789e-02},
       {9.5767e-03, -8.4150e-02, 1.2712e-02},
       {6.1405e-02, 7.3529e-02, 2.1038e-02}},

      {{3.4773e-02, 3.4784e-02, 1.1490e-01},
       {-4.9297e-03, 9.9624e-02, 1.2807e-01},
       {1.6328e-02, -1.0679e-02, -6.7578e-03}},

      {{-1.2873e-01, -2.1786e-01, -3.4146e-02},
       {-2.6179e-01, -2.6514e-01, -8.0889e-03},
       {-1.5585e-01, -4.3445e-01, -1.4740e-01}},

      {{7.5227e-02, 9.1829e-02, 7.4884e-02},
       {1.1412e-01, 5.5491e-02, -6.0528e-03},
       {2.7062e-02, 7.3924e-02, 1.0434e-01}},

      {{-6.0281e-02, -1.1549e-01, 2.2709e-01},
       {4.2041e-02, 2.1707e-01, 4.1880e-01},
       {9.0074e-02, 1.3171e-01, 1.0317e-01}}},

     {{{1.5187e-01, 7.0366e-02, 1.7380e-01},
       {4.6079e-02, 1.3977e-01, 1.0220e-01},
       {1.5247e-01, 2.2091e-02, 1.5199e-01}},

      {{1.5547e-01, 8.9293e-02, 4.6014e-02},
       {6.7829e-02, 2.2281e-02, 9.1342e-02},
       {6.2987e-02, 6.1021e-02, 3.5544e-02}},

      {{1.3159e-02, 1.3068e-02, 3.5084e-02},
       {-4.9246e-02, -1.5002e-01, -1.5899e-02},
       {2.6307e-02, -2.8583e-02, -8.8285e-02}},

      {{-9.4731e-02, -7.4211e-02, -1.1536e-01},
       {4.9280e-02, -1.5897e-03, -2.4852e-02},
       {-3.2466e-02, 1.0120e-02, -6.6255e-02}},

      {{-6.6729e-02, 5.1992e-02, 5.2660e-02},
       {-8.4879e-02, -4.2219e-02, 2.2527e-02},
       {4.1032e-02, -8.0606e-03, 2.9941e-02}},

      {{1.6744e-01, 6.9618e-02, 3.6782e-02},
       {5.5863e-02, 6.7057e-02, 1.5031e-01},
       {4.3910e-03, 2.7448e-02, 9.7416e-02}},

      {{4.9204e-01, 4.7135e-01, 4.2943e-01},
       {4.6650e-01, 4.8070e-01, 4.6968e-01},
       {4.6498e-01, 4.1375e-01, 4.8745e-01}},

      {{1.3868e-02, 1.3873e-01, 3.8224e-02},
       {4.5359e-02, 1.4847e-01, -1.6794e-02},
       {-8.3480e-03, 1.5398e-03, 1.3472e-01}},

      {{3.5105e-02, 9.5146e-03, -7.9040e-02},
       {-7.3065e-02, -3.3148e-02, -1.1717e-01},
       {-3.7108e-02, -4.3306e-02, 9.1296e-03}},

      {{-7.1237e-02, -1.3993e-01, -4.5188e-02},
       {-5.8503e-02, 3.2415e-02, -3.5181e-02},
       {9.3897e-03, 2.5238e-02, -6.8112e-02}},

      {{7.3592e-02, -7.7827e-02, -5.4092e-02},
       {-4.1225e-02, 7.1854e-02, 1.9247e-02},
       {-7.1710e-03, 2.9931e-02, -1.5199e-02}},

      {{5.5881e-02, 9.5190e-03, 9.9034e-03},
       {5.4743e-02, -8.1320e-02, 6.3968e-02},
       {-3.2543e-02, -1.3196e-03, 4.9241e-02}},

      {{-7.1317e-02, -1.2257e-01, -4.6333e-02},
       {-5.1982e-02, -1.1052e-02, -1.2755e-01},
       {-1.2071e-01, -5.8043e-02, 2.0114e-02}},

      {{3.5016e-01, 4.3472e-01, 4.8196e-01},
       {3.6672e-01, 3.0436e-01, 3.2309e-01},
       {4.3247e-01, 4.1734e-01, 4.5330e-01}}},

     {{{1.1796e-01, 6.0218e-03, 1.7557e-02},
       {-3.4972e-02, -5.9190e-02, -6.4058e-02},
       {-6.0840e-02, -4.8310e-02, -4.4606e-02}},

      {{-1.5785e-02, -8.3887e-02, 5.5765e-02},
       {-3.6885e-02, -1.4059e-01, 4.8746e-02},
       {-3.7999e-02, -1.1873e-01, 2.3548e-02}},

      {{-1.3186e-01, -9.2805e-02, -7.0878e-02},
       {-2.4368e-01, -1.7348e-01, -2.6350e-01},
       {-1.1059e-01, -2.3371e-01, -2.2960e-01}},

      {{-1.2872e-01, -1.9107e-01, -2.4126e-01},
       {-1.0937e-01, -1.5627e-01, -5.0383e-02},
       {-5.2452e-02, 4.6911e-02, -7.8100e-02}},

      {{2.5787e-03, 5.7070e-02, -2.6841e-02},
       {1.0155e-01, 7.7528e-02, 1.4582e-01},
       {-2.6059e-02, 8.1747e-02, 3.4877e-02}},

      {{-2.2394e-01, -2.6521e-01, -2.5429e-01},
       {-2.3280e-01, -2.9075e-01, -1.5602e-01},
       {-2.3128e-01, -3.5440e-01, -3.0603e-01}},

      {{3.2277e-01, 1.9039e-01, 2.9687e-01},
       {2.4543e-01, 2.7252e-01, 2.7819e-01},
       {4.0022e-01, 2.3144e-01, 3.2669e-01}},

      {{5.7409e-02, 5.6225e-02, 5.8823e-02},
       {1.8577e-01, 9.4905e-02, 6.9337e-02},
       {6.7229e-02, 1.8307e-01, 1.1713e-01}},

      {{-3.4692e-02, -4.5806e-02, -1.4742e-01},
       {-6.9951e-02, -1.6585e-02, -1.5072e-02},
       {-8.2353e-02, -1.3850e-02, 7.2996e-02}},

      {{-1.3955e-01, -2.3298e-02, -3.6082e-02},
       {-1.3660e-01, -3.7025e-02, -1.8509e-02},
       {-1.4442e-01, -1.1398e-01, -1.0720e-01}},

      {{8.4267e-02, 3.7958e-02, 6.8695e-02},
       {1.3891e-01, 2.0694e-01, 6.3392e-02},
       {1.3191e-01, 6.5129e-02, 8.8717e-02}},

      {{2.6561e-02, -2.2895e-02, -3.3687e-02},
       {-1.2796e-01, -1.2168e-01, -1.1741e-01},
       {-1.1968e-01, -1.9649e-01, -1.2818e-01}},

      {{-1.9072e-01, -1.3413e-01, -9.7445e-02},
       {-5.7984e-02, -2.0885e-01, -2.1280e-01},
       {-9.6895e-02, -1.5366e-01, -1.1858e-01}},

      {{3.1830e-01, 3.4007e-01, 3.6964e-01},
       {3.0809e-01, 1.8836e-01, 2.5295e-01},
       {3.2394e-01, 3.0001e-01, 4.2431e-01}}},

     {{{3.3586e-01, 3.3706e-01, 2.7867e-01},
       {3.1035e-01, 2.3458e-01, 2.3586e-01},
       {1.9226e-01, 1.6722e-01, 2.3993e-01}},

      {{4.8702e-01, 4.4451e-01, 3.1442e-01},
       {4.3723e-01, 4.8818e-01, 4.9830e-01},
       {3.1698e-01, 4.2559e-01, 3.7462e-01}},

      {{3.7278e-01, 3.2702e-01, 2.2070e-01},
       {3.9011e-01, 4.0673e-01, 3.8103e-01},
       {2.2112e-01, 2.5690e-01, 2.4090e-01}},

      {{-7.4916e-01, -8.2774e-01, -6.5705e-01},
       {-7.8940e-01, -9.9463e-01, -8.8357e-01},
       {-4.5823e-01, -6.2812e-01, -6.0400e-01}},

      {{-1.4201e-01, -1.2063e-01, -1.4576e-01},
       {-5.3163e-02, 1.3419e-02, -3.1661e-02},
       {1.5572e-02, -1.1871e-01, 1.8699e-02}},

      {{1.1263e-01, 1.4492e-01, 1.3778e-01},
       {7.8548e-02, 2.0870e-01, 3.8902e-02},
       {1.2011e-01, 4.1324e-02, 1.0879e-02}},

      {{1.5271e-01, 1.4548e-01, 9.6714e-02},
       {1.9995e-01, 1.0019e-01, 1.5865e-01},
       {1.4821e-01, 2.1895e-01, 1.8439e-01}},

      {{1.1830e-01, 9.6396e-03, 1.0669e-01},
       {9.0868e-03, 1.2936e-01, 1.4641e-01},
       {-1.0755e-02, 6.0262e-02, 6.5690e-02}},

      {{-6.4455e-02, 3.9023e-02, 5.4614e-02},
       {1.2763e-02, -4.0241e-04, 7.9447e-02},
       {5.6362e-02, 7.0554e-03, -6.7757e-02}},

      {{1.8471e-02, 5.7179e-02, 2.2470e-02},
       {-2.9139e-03, 8.2740e-02, 6.0351e-02},
       {9.2615e-02, 8.5971e-03, 3.7299e-02}},

      {{8.5129e-02, 9.5790e-02, -3.5873e-02},
       {-2.0563e-02, 5.1787e-02, 1.0446e-01},
       {-1.8747e-02, 3.6347e-02, -4.1420e-02}},

      {{3.3126e-01, 4.8197e-01, 3.3094e-01},
       {3.7715e-01, 3.6086e-01, 3.1958e-01},
       {2.3518e-01, 3.7386e-01, 3.6984e-01}},

      {{-1.0502e-02, -1.4205e-02, -2.4303e-02},
       {1.1667e-01, -3.9170e-02, -2.9923e-02},
       {-4.7395e-02, 1.1737e-01, 6.3848e-02}},

      {{1.1914e-01, 1.2477e-01, 1.5449e-01},
       {1.1240e-01, 1.5657e-01, 1.5663e-01},
       {4.1837e-02, 1.8090e-01, 1.4493e-01}}},

     {{{2.6438e-01, 2.2035e-01, -1.1361e-01},
       {3.5864e-01, 1.3415e-01, -7.1567e-02},
       {-1.8826e-02, -1.1585e-01, -9.2075e-02}},

      {{3.3544e-01, 3.2992e-01, -1.7151e-01},
       {3.9225e-01, 3.0880e-01, -1.7085e-01},
       {-1.2081e-01, -6.5099e-02, -2.0118e-01}},

      {{2.8413e-01, 2.0947e-01, 5.3408e-02},
       {1.4439e-01, 1.5563e-01, -1.0923e-01},
       {-3.3854e-01, -3.9982e-01, -2.8004e-01}},

      {{9.6579e-01, 9.8929e-01, 1.0072e+00},
       {9.2099e-01, 9.7812e-01, 9.1394e-01},
       {8.6808e-01, 8.9773e-01, 7.9836e-01}},

      {{-3.5075e-02, 1.6079e-03, -9.9650e-02},
       {-2.2264e-02, -9.3945e-02, -1.4032e-01},
       {9.4447e-02, 1.2966e-01, 2.0095e-02}},

      {{1.6202e-01, -1.7634e-02, -3.0817e-01},
       {4.2847e-02, -1.9094e-02, -1.2103e-01},
       {-6.4355e-02, -1.1911e-01, 3.9562e-05}},

      {{9.1998e-02, 5.8143e-02, -3.2305e-01},
       {-7.3635e-02, 3.7965e-02, -1.7364e-01},
       {-1.9017e-01, -1.2327e-01, -1.3404e-01}},

      {{-1.1922e-01, -4.5495e-02, -6.0715e-02},
       {8.8050e-03, -6.3637e-02, -1.0749e-02},
       {-9.9590e-02, 1.0298e-02, -1.1382e-01}},

      {{-3.8567e-02, 2.4543e-02, -1.2105e-02},
       {2.5606e-03, 7.4073e-02, 4.5626e-02},
       {-4.6041e-02, -1.1681e-01, -1.9426e-02}},

      {{1.2080e-01, 1.0841e-01, 2.5095e-02},
       {1.3750e-01, 1.4395e-01, 8.3743e-02},
       {6.4099e-02, 1.4764e-01, 1.2143e-01}},

      {{-9.0658e-02, -7.1625e-02, 4.0250e-03},
       {-1.3111e-02, -1.3611e-02, -5.5011e-02},
       {-5.3740e-02, 1.6056e-02, 5.4654e-02}},

      {{2.6807e-01, 1.5803e-01, -1.6203e-01},
       {2.0621e-01, 1.7754e-01, -4.1951e-02},
       {-2.3024e-01, -1.9716e-01, -1.2436e-01}},

      {{4.4593e-03, 1.5665e-01, 4.3823e-02},
       {2.3109e-02, 1.1941e-01, 1.7156e-01},
       {3.8622e-02, 1.0657e-01, 4.4520e-02}},

      {{-3.3848e-02, -1.2428e-01, -4.9282e-01},
       {-2.3062e-01, -2.0488e-01, -4.8901e-01},
       {-3.9577e-01, -4.3851e-01, -3.3925e-01}}},

     {{{-4.0088e-01, -4.3363e-02, -4.4429e-01},
       {-1.6737e-01, -3.8381e-01, -3.8934e-01},
       {-1.7692e-01, -3.6293e-01, -1.4566e-01}},

      {{-2.0466e-01, -2.3384e-01, -2.2710e-01},
       {-2.0441e-01, -2.9780e-01, -2.3784e-01},
       {-3.4427e-02, -1.6336e-01, -1.3595e-01}},

      {{2.3344e-01, 3.9100e-01, 3.0564e-01},
       {2.7518e-01, 2.3137e-01, 3.1317e-01},
       {3.7809e-01, 5.0653e-01, 5.0775e-01}},

      {{-1.5959e-01, -5.9237e-02, -1.8115e-01},
       {1.1078e-01, 6.4965e-02, 4.8623e-02},
       {1.9734e-01, 3.7969e-01, 2.2712e-01}},

      {{-3.5211e-02, 1.1983e-01, 1.1180e-01},
       {7.1415e-02, 2.6002e-02, 1.3047e-01},
       {1.5367e-02, 1.8573e-01, 1.8081e-01}},

      {{-2.7723e-01, -2.1953e-01, -3.7787e-01},
       {-2.6552e-01, -3.5281e-01, -2.5158e-01},
       {-1.3674e-01, -2.5327e-01, -1.9744e-01}},

      {{-5.1161e-01, -4.4379e-01, -4.7116e-01},
       {-6.0957e-01, -5.4857e-01, -5.4739e-01},
       {-7.7560e-01, -7.1509e-01, -5.9539e-01}},

      {{-3.6561e-02, -6.1373e-02, -9.8617e-02},
       {2.0834e-02, -3.5664e-03, -9.5575e-03},
       {-1.7830e-02, -6.1873e-02, -6.1997e-02}},

      {{4.3310e-02, 2.6077e-02, 1.9829e-02},
       {-7.1713e-02, -3.0083e-02, 4.3889e-02},
       {7.3019e-03, -2.9409e-02, 3.0188e-02}},

      {{1.3976e-01, 1.1623e-01, 4.5513e-02},
       {2.2329e-02, 1.3372e-01, 8.5914e-02},
       {1.9661e-02, 5.5262e-02, 1.2499e-01}},

      {{-4.6761e-02, 4.9927e-02, 1.2412e-02},
       {-4.6248e-02, -2.1808e-02, 1.1256e-01},
       {-1.9044e-03, 1.1332e-01, -1.8551e-02}},

      {{3.9173e-02, 9.3076e-02, 1.6565e-01},
       {1.2215e-01, 1.2586e-01, 2.3812e-01},
       {3.4455e-01, 3.2420e-01, 3.3753e-01}},

      {{9.9645e-02, 2.0427e-01, 2.6344e-01},
       {1.2624e-01, 1.7902e-01, 2.8935e-01},
       {1.9853e-01, 2.7460e-01, 2.5534e-01}},

      {{-4.6299e-01, -3.8759e-01, -3.9075e-01},
       {-3.8169e-01, -5.1332e-01, -5.3329e-01},
       {-4.2091e-01, -5.5499e-01, -4.8206e-01}}},

     {{{-4.6441e-02, -7.4644e-02, -5.1533e-02},
       {-3.7780e-03, -1.0541e-03, -7.5704e-02},
       {-1.0786e-01, -2.5912e-02, -9.0310e-02}},

      {{-1.0612e-01, -1.1418e-01, -9.8845e-02},
       {-4.7524e-02, 1.1755e-02, -1.0843e-01},
       {-1.3863e-01, -7.6758e-02, -6.6672e-02}},

      {{-7.9342e-02, -1.1155e-01, 3.7004e-03},
       {-6.9655e-02, -1.0563e-01, -1.3634e-01},
       {-1.4964e-01, -8.2269e-02, -1.0634e-01}},

      {{-1.4767e-01, -1.6190e-01, -1.4014e-01},
       {-2.2518e-01, -1.6420e-01, -8.2676e-03},
       {3.0456e-03, -2.7195e-01, -8.9360e-02}},

      {{-3.6665e-02, 9.7935e-02, 1.8890e-02},
       {2.7553e-02, 9.7483e-02, -3.4029e-02},
       {3.1616e-02, 7.2315e-02, 5.6102e-02}},

      {{-1.2343e-01, 2.9609e-02, -1.1522e-01},
       {-2.2282e-02, -1.2311e-01, -1.2862e-03},
       {3.5338e-02, -2.0910e-02, 3.2928e-03}},

      {{-8.9853e-02, -4.6421e-02, -7.9380e-02},
       {-6.3772e-02, -1.5848e-01, -1.2234e-01},
       {4.3479e-02, 2.2121e-02, -2.5491e-02}},

      {{9.4245e-02, 1.1851e-01, 1.6777e-02},
       {3.1511e-02, 1.1650e-01, 1.5033e-03},
       {3.5246e-02, 1.1165e-01, -3.5687e-03}},

      {{1.6665e-02, 5.1912e-02, -2.3008e-02},
       {7.6235e-03, -2.8892e-02, 1.2933e-02},
       {4.8015e-02, -1.8509e-02, 6.6049e-02}},

      {{-9.8474e-02, -4.8831e-02, -8.0787e-02},
       {-3.7056e-02, -2.2599e-02, -5.6889e-02},
       {-1.1952e-01, -2.5185e-02, -1.1672e-01}},

      {{-2.8047e-02, -3.6254e-02, -9.1528e-02},
       {4.9772e-02, -5.4659e-02, -3.8510e-02},
       {-2.6201e-02, 1.9516e-02, -7.5290e-02}},

      {{-4.0508e-02, 9.0608e-03, 4.5614e-02},
       {-2.5512e-02, -7.3356e-02, 2.2780e-03},
       {-2.9060e-03, -2.0768e-02, -2.5879e-02}},

      {{-4.3913e-02, -9.1252e-02, -9.5843e-02},
       {1.7169e-02, 2.7396e-02, 2.5644e-02},
       {-9.7935e-02, -4.8170e-02, 1.6274e-02}},

      {{3.5959e-02, -8.8286e-02, -2.1373e-02},
       {7.1675e-03, -5.1209e-02, -4.5461e-03},
       {9.3170e-02, -6.1966e-02, 3.6164e-02}}},

     {{{6.4826e-02, 1.2784e-01, 7.9905e-02},
       {1.5396e-01, 1.5747e-01, 1.4347e-01},
       {1.3430e-01, 2.8993e-01, 2.4126e-01}},

      {{-1.2804e-01, -6.9742e-02, -1.2326e-01},
       {-1.1790e-01, 3.5746e-02, -4.0579e-03},
       {2.7795e-02, 1.9094e-02, 4.6907e-02}},

      {{-1.3319e-01, -6.8331e-02, 3.8589e-03},
       {2.4381e-02, 3.1285e-02, -6.6925e-02},
       {3.0682e-02, 5.5469e-02, -3.2898e-02}},

      {{-1.8899e-01, -1.8169e-01, -1.8612e-01},
       {-7.8176e-02, -1.4040e-01, -1.4166e-01},
       {1.2825e-02, -2.9495e-02, -1.9509e-03}},

      {{-1.1617e-01, -2.3277e-03, -7.8829e-02},
       {1.0172e-02, 1.7192e-02, -1.5011e-01},
       {-1.0034e-01, -8.1108e-02, -1.1563e-01}},

      {{-2.9988e-01, -4.3501e-01, -4.3808e-01},
       {-2.5703e-01, -3.7412e-01, -3.4236e-01},
       {-3.6291e-01, -2.9866e-01, -2.5973e-01}},

      {{2.8140e-02, 5.1024e-02, 1.9843e-02},
       {7.6997e-02, 2.1851e-01, 1.1465e-01},
       {1.7116e-01, 1.8165e-01, 2.4233e-01}},

      {{5.9231e-02, 5.1506e-02, 4.7221e-02},
       {-7.9179e-02, -1.0143e-02, 4.4509e-02},
       {5.8338e-02, 1.2146e-02, -1.0410e-01}},

      {{5.4604e-02, -5.2504e-02, 1.4420e-02},
       {3.2363e-02, -3.9078e-02, -3.5363e-02},
       {-2.4927e-02, -5.1572e-02, 3.1642e-02}},

      {{-8.8166e-02, -7.0758e-02, -1.2514e-01},
       {-3.2131e-02, -5.0795e-02, -1.4124e-04},
       {-5.7311e-03, -1.2228e-01, -8.4100e-02}},

      {{3.8795e-02, 1.0872e-02, -4.0576e-02},
       {-1.5581e-02, 4.2295e-02, 3.6560e-02},
       {-1.1312e-01, 5.6900e-02, -8.7860e-02}},

      {{-6.1709e-02, 8.2926e-03, -8.5160e-02},
       {-1.4271e-01, 5.4279e-02, -9.6830e-02},
       {1.9312e-02, -6.4444e-03, -4.6476e-03}},

      {{-1.1144e-01, -5.9858e-02, -1.8470e-01},
       {-1.4639e-01, -1.0237e-01, -1.9939e-01},
       {-4.2322e-02, -1.3148e-01, -4.8202e-02}},

      {{-5.4077e-03, 1.7202e-01, 1.5194e-01},
       {7.4149e-02, 2.3078e-01, 2.4644e-01},
       {2.6416e-01, 2.2681e-01, 1.0145e-01}}},

     {{{1.7365e-03, -9.0694e-02, -1.7702e-02},
       {-1.3095e-01, -1.3395e-01, 3.7924e-03},
       {-6.2764e-02, -1.2468e-01, -5.8416e-02}},

      {{-4.6995e-02, -1.1395e-01, -1.2396e-01},
       {-6.9558e-02, -6.5662e-02, -9.6362e-02},
       {-1.3272e-01, 1.4200e-02, -3.6901e-02}},

      {{-7.4933e-02, 1.1682e-02, -9.2407e-02},
       {-7.8459e-02, -5.7047e-02, -2.9819e-02},
       {1.5075e-02, -1.4897e-01, -1.9667e-02}},

      {{-2.8140e-02, -1.4437e-01, -7.7934e-02},
       {-1.1104e-01, 2.3302e-02, -2.6009e-02},
       {-4.3425e-02, -1.0803e-01, -8.2966e-02}},

      {{-1.1967e-02, -5.6249e-02, 2.7982e-02},
       {-1.3739e-01, 2.3337e-02, 2.4046e-02},
       {-5.2995e-02, -1.2161e-01, -3.6083e-02}},

      {{-3.0592e-02, 8.3368e-04, -2.6154e-03},
       {-5.7776e-02, -8.6127e-02, 2.5176e-02},
       {-1.3411e-01, -1.2184e-01, -1.2952e-01}},

      {{-1.4679e-01, -1.2632e-01, -5.0097e-02},
       {-1.1455e-01, -3.6515e-02, -7.8973e-02},
       {-1.2527e-01, 2.0244e-02, -1.2817e-01}},

      {{6.3396e-03, 2.9340e-04, -1.0808e-02},
       {-1.3576e-01, 1.4344e-02, -1.1909e-01},
       {-9.1955e-03, -1.0739e-01, 1.5929e-02}},

      {{-7.5358e-02, -7.4416e-02, 2.6427e-02},
       {-7.8171e-02, -5.6777e-02, 7.7621e-02},
       {8.6272e-02, 4.6596e-02, 9.9790e-02}},

      {{-1.3214e-01, -4.3119e-03, -3.2769e-02},
       {-1.2921e-01, -5.8641e-02, -1.9806e-02},
       {-1.2472e-01, -2.7896e-02, -3.3179e-02}},

      {{-1.1919e-01, -1.1051e-01, -7.9627e-02},
       {-1.1878e-01, -7.1954e-02, 1.5466e-02},
       {-2.0664e-02, -1.2938e-01, 1.4887e-02}},

      {{-1.0282e-01, -8.7279e-03, -5.3907e-02},
       {-5.7928e-02, 8.1115e-03, -1.1485e-01},
       {-1.0215e-01, -1.1944e-02, -9.8478e-02}},

      {{-1.4795e-01, -1.2991e-01, 1.8591e-02},
       {-1.0626e-01, 2.4521e-02, 2.2370e-02},
       {-3.6233e-03, -3.0476e-02, -1.2056e-01}},

      {{-1.4578e-01, -4.1026e-02, -1.4807e-01},
       {-7.2519e-02, 6.3249e-03, -6.2017e-02},
       {-2.8008e-02, -6.9414e-02, -1.0508e-02}}},

     {{{-1.4580e-01, -2.1299e-02, 2.7650e-02},
       {-8.7680e-02, -1.4861e-02, -4.5944e-02},
       {7.2890e-03, -7.5288e-02, 1.2112e-02}},

      {{-6.2920e-02, 7.0161e-03, -8.1708e-02},
       {2.3286e-02, -3.6002e-02, 6.2277e-03},
       {-8.3206e-02, -6.4478e-02, -7.8398e-02}},

      {{-5.5822e-03, -5.9715e-02, -1.0972e-03},
       {-2.3439e-02, -9.0235e-02, -1.2536e-01},
       {-4.9414e-02, -9.8880e-02, -1.3924e-01}},

      {{-5.3908e-02, -1.0499e-01, -5.5323e-05},
       {-1.0532e-01, -4.9698e-02, -8.1506e-02},
       {-2.9466e-02, -1.1588e-01, -1.1234e-01}},

      {{-4.5340e-02, 2.1953e-03, 5.1516e-02},
       {6.5428e-02, 2.9220e-02, 8.1417e-02},
       {1.0423e-01, -3.0026e-02, 5.0517e-02}},

      {{-1.1763e-01, -6.0975e-02, -6.8300e-02},
       {-1.3270e-01, -1.9014e-02, -7.4938e-02},
       {-4.8403e-02, -5.5556e-02, -7.5626e-02}},

      {{-4.5111e-02, 4.5763e-03, -2.2084e-02},
       {-5.0185e-02, -4.0565e-02, -1.1191e-01},
       {-9.8225e-02, -6.2528e-03, -6.0083e-02}},

      {{1.3153e-01, 4.0350e-02, -1.3328e-02},
       {1.0550e-03, 1.3195e-02, 6.7969e-02},
       {3.1361e-02, 9.1530e-02, -3.6042e-03}},

      {{-1.5964e-02, -6.3856e-02, -3.2660e-02},
       {1.0132e-01, -6.8702e-02, 2.9094e-02},
       {8.1895e-03, -6.2840e-02, 1.0002e-01}},

      {{-3.6047e-02, -5.9215e-02, -1.2050e-01},
       {-1.7910e-02, -1.2431e-01, -8.1441e-02},
       {-2.7785e-02, 2.2959e-02, -2.7795e-02}},

      {{-1.1955e-01, 8.3372e-02, -1.5791e-02},
       {-9.4456e-03, 1.6127e-02, -1.1432e-01},
       {-6.1762e-02, -5.1508e-02, -7.2874e-02}},

      {{5.8573e-02, 4.5145e-02, -1.3772e-02},
       {3.3278e-02, 9.3069e-02, -2.7429e-02},
       {-1.8116e-02, 4.0694e-02, 3.8805e-02}},

      {{-6.9666e-02, -1.2255e-01, -2.5985e-02},
       {1.3956e-02, 1.2548e-01, 6.4018e-03},
       {2.7083e-02, 5.2317e-02, 6.8805e-02}},

      {{3.5903e-02, -2.8773e-02, -2.2008e-01},
       {-3.0651e-02, -6.1281e-02, -1.2039e-01},
       {5.7038e-02, -5.6231e-03, -1.1326e-01}}},

     {{{-3.3524e-01, -4.5309e-01, -2.9177e-01},
       {-4.4202e-01, -4.1670e-01, -3.0491e-01},
       {-4.2580e-01, -3.4467e-01, -3.0205e-01}},

      {{1.1708e-02, -1.2784e-01, -2.6383e-03},
       {-6.4745e-02, -5.2239e-02, -1.2263e-02},
       {-6.5123e-02, 1.6638e-03, -1.0822e-01}},

      {{9.3964e-02, -1.4413e-01, -7.1127e-02},
       {-5.0205e-02, -2.4220e-01, -1.1009e-01},
       {-2.1086e-01, -1.7657e-01, -2.2446e-01}},

      {{4.2854e-01, 4.8438e-01, 3.4692e-01},
       {3.3941e-01, 3.7006e-01, 4.1178e-01},
       {3.1591e-01, 3.6253e-01, 3.7915e-01}},

      {{-4.8638e-02, -8.3263e-02, -3.7208e-02},
       {6.0239e-03, 6.7523e-02, -7.3774e-02},
       {2.4289e-02, 4.6744e-02, -1.5941e-02}},

      {{-2.2763e-02, 3.6569e-02, -2.0242e-02},
       {2.5578e-02, -1.2538e-01, -1.0931e-02},
       {1.4625e-03, -1.5478e-02, -6.7262e-02}},

      {{1.4656e-01, 1.2838e-01, 1.8145e-01},
       {9.8451e-02, 1.4055e-01, 1.0618e-01},
       {1.8018e-01, 1.9406e-01, 1.6943e-01}},

      {{-6.4912e-02, 8.7515e-03, -4.8937e-02},
       {3.3329e-02, -6.1299e-02, -1.1063e-01},
       {-9.6419e-02, 2.7917e-02, 9.5130e-03}},

      {{4.5117e-02, -3.0575e-03, -1.2390e-01},
       {-1.4547e-01, -4.7245e-02, 8.3780e-02},
       {5.0309e-02, -1.4459e-01, 1.6001e-02}},

      {{1.2501e-01, -2.1482e-02, 1.3139e-01},
       {1.1760e-01, 2.7390e-02, 1.2948e-01},
       {1.2471e-02, 1.0148e-01, -2.2476e-02}},

      {{8.8202e-02, 1.7865e-02, 3.2064e-03},
       {-2.4111e-02, 1.2182e-01, 8.2155e-02},
       {4.2577e-02, 1.4478e-01, 3.8491e-02}},

      {{1.6532e-02, -9.4293e-02, -9.4775e-03},
       {-5.7985e-02, -1.5048e-01, -1.2322e-01},
       {-1.0486e-01, -3.3409e-02, -3.5151e-02}},

      {{5.7091e-02, 2.5469e-02, 9.1612e-02},
       {1.0797e-01, 8.5932e-02, 1.2607e-02},
       {6.5600e-02, 2.0179e-02, 1.2841e-01}},

      {{4.6891e-02, 1.4274e-01, 8.5068e-02},
       {9.9843e-02, 3.5538e-02, 7.0207e-02},
       {1.1103e-01, 7.9043e-02, 1.2477e-01}}},

     {{{-7.2100e-02, 3.5939e-02, -4.1824e-03},
       {2.4290e-01, 3.3104e-01, 2.9916e-01},
       {5.2498e-01, 7.2242e-01, 3.7249e-01}},

      {{-5.7707e-01, -4.9291e-01, -4.5392e-01},
       {-3.6939e-01, -3.4818e-01, -4.1069e-01},
       {-6.9014e-02, 1.5487e-02, -1.9043e-01}},

      {{-6.3293e-01, -6.1537e-01, -4.0411e-01},
       {-4.4726e-01, -4.1005e-01, -5.2330e-01},
       {-5.6841e-02, 6.2415e-02, -1.7057e-01}},

      {{-2.2901e-01, -1.2682e-01, -2.2703e-01},
       {3.2469e-02, -2.4884e-02, -4.1557e-02},
       {-4.9527e-02, -2.1894e-02, -2.6554e-02}},

      {{5.0876e-01, 3.7443e-01, 3.4022e-01},
       {3.3528e-01, 2.5482e-01, 3.7744e-01},
       {3.5315e-01, 2.6767e-01, 3.7606e-01}},

      {{-4.3887e-01, -4.8431e-01, -3.9495e-01},
       {-2.1059e-01, -2.8600e-01, -2.8898e-01},
       {-2.8107e-01, -2.0222e-02, -1.7818e-01}},

      {{-1.3061e-01, -8.0108e-02, -2.6928e-02},
       {1.3419e-01, 3.6822e-01, 8.2763e-02},
       {5.4407e-01, 5.3854e-01, 3.8172e-01}},

      {{2.7176e-02, -2.6662e-02, -7.5672e-02},
       {2.1547e-02, -1.0325e-01, -9.7540e-02},
       {9.6913e-03, -8.3176e-02, 1.9544e-02}},

      {{3.5407e-03, -6.1577e-02, -4.6234e-02},
       {6.2052e-02, 1.6931e-01, 7.2869e-02},
       {7.2740e-02, 5.1138e-02, -7.4217e-02}},

      {{-1.4866e-01, -1.4091e-01, -2.6797e-02},
       {-8.8405e-02, -1.3418e-01, -4.6022e-02},
       {-8.4477e-02, -9.3298e-03, 3.5517e-02}},

      {{-9.5457e-03, 1.0885e-01, 5.5917e-03},
       {-2.5697e-02, -3.7808e-02, 8.0879e-02},
       {-1.5694e-01, -2.0683e-02, -1.2679e-01}},

      {{-6.0588e-01, -5.2483e-01, -4.5204e-01},
       {-4.7154e-01, -4.7277e-01, -3.7371e-01},
       {-7.7906e-02, -8.0878e-02, -2.7986e-01}},

      {{5.2211e-01, 4.4363e-01, 4.3272e-01},
       {3.9433e-01, 4.4629e-01, 4.6795e-01},
       {4.5434e-01, 3.4168e-01, 4.1411e-01}},

      {{-1.9907e-01, -1.2201e-02, -6.5676e-02},
       {1.9676e-01, 3.5652e-01, 1.6194e-01},
       {4.4430e-01, 5.7922e-01, 2.8382e-01}}},

     {{{-3.7378e-02, -9.6471e-02, -1.0760e-01},
       {-1.2073e-01, -7.6027e-03, -5.8280e-02},
       {-4.0488e-02, 7.1036e-02, 2.7312e-03}},

      {{-9.5873e-02, -1.0023e-01, 5.4436e-03},
       {-1.0441e-01, -5.4472e-02, 8.8047e-02},
       {-9.2240e-03, 4.3332e-02, 3.4141e-02}},

      {{-1.7110e-01, -1.9133e-01, -1.6519e-01},
       {-1.8761e-01, -2.0835e-01, -2.0392e-01},
       {-4.5203e-02, -1.2309e-01, -1.9401e-02}},

      {{-3.1525e-01, -2.4365e-01, -1.7257e-01},
       {-2.8864e-01, -3.6431e-01, -2.0722e-01},
       {-4.2665e-01, -2.9208e-01, -2.9650e-01}},

      {{-1.1161e-01, -8.0008e-02, -5.6595e-02},
       {-3.7681e-02, -2.0561e-02, -5.5454e-02},
       {3.6969e-02, -2.8940e-02, -9.5563e-02}},

      {{-2.8309e-01, -1.5257e-01, -1.7431e-01},
       {-1.8795e-01, -2.4945e-01, -2.5332e-01},
       {-3.3518e-01, -2.0675e-01, -2.6646e-01}},

      {{2.0970e-02, -9.6976e-02, 2.7696e-02},
       {4.9858e-02, -1.9308e-02, -3.8797e-02},
       {-3.8222e-02, 5.2726e-02, 3.7524e-02}},

      {{5.7294e-02, -4.3388e-02, 9.2551e-02},
       {2.8458e-02, 7.0634e-02, -5.4560e-02},
       {7.3527e-02, 1.1373e-01, 1.1611e-01}},

      {{7.1241e-02, 1.2362e-01, 3.1363e-02},
       {-7.1223e-03, 4.1568e-02, 1.0752e-01},
       {-7.7095e-02, 2.0342e-02, 7.3304e-02}},

      {{-2.1972e-02, 2.8674e-02, -5.4642e-03},
       {-2.4673e-02, -2.5268e-02, -3.8636e-02},
       {-1.6474e-02, 2.1094e-03, 2.3533e-02}},

      {{-1.7376e-02, -1.0379e-01, -1.0354e-01},
       {4.9289e-03, 4.6643e-02, 9.3844e-03},
       {8.3168e-03, -9.6655e-02, -7.1821e-02}},

      {{-1.7553e-01, -1.2704e-01, -1.8405e-02},
       {-2.5666e-02, -1.4199e-01, -1.0893e-01},
       {2.5474e-02, -6.9761e-02, -7.9044e-02}},

      {{-8.4077e-02, -5.0180e-02, 8.5480e-03},
       {-8.2652e-02, -5.2151e-02, -4.6367e-02},
       {-1.0331e-03, -3.0198e-02, -1.0677e-01}},

      {{-1.9442e-01, -1.2521e-01, -1.3760e-01},
       {-1.1240e-01, -1.3019e-02, 9.2377e-03},
       {-7.2347e-02, -9.6307e-02, -1.2555e-01}}},

     {{{2.3989e-01, 1.8273e-01, 1.2107e-01},
       {2.3056e-01, 3.3190e-01, 2.0152e-01},
       {1.5176e-01, 2.1988e-01, 1.0329e-01}},

      {{3.0028e-01, 3.0809e-01, 2.3785e-01},
       {5.0414e-01, 5.1899e-01, 5.0338e-01},
       {2.1934e-01, 2.9455e-01, 2.4856e-01}},

      {{4.5221e-01, 6.1069e-01, 4.4533e-01},
       {5.9152e-01, 8.3393e-01, 6.5836e-01},
       {6.0042e-01, 5.8119e-01, 4.2981e-01}},

      {{-6.9714e-01, -6.7132e-01, -7.0302e-01},
       {-5.7112e-01, -6.3948e-01, -6.7365e-01},
       {-5.1079e-01, -4.8077e-01, -4.4836e-01}},

      {{-2.7989e-01, -1.9408e-01, -9.4314e-02},
       {-1.6082e-01, -1.5055e-01, -1.7202e-01},
       {-2.5424e-01, -2.4605e-01, -6.5423e-02}},

      {{-5.6603e-01, -4.7889e-01, -6.7660e-01},
       {-2.5807e-01, -4.3111e-01, -4.9529e-01},
       {-4.2816e-01, -3.8275e-01, -5.8799e-01}},

      {{5.3609e-02, 1.9152e-01, 6.6773e-02},
       {8.5338e-02, 1.0009e-01, 1.3806e-01},
       {2.0242e-01, 8.4172e-02, 6.5150e-02}},

      {{-1.1445e-01, 1.9928e-02, -1.3411e-01},
       {1.7105e-03, 3.0066e-02, 1.3736e-02},
       {-1.5571e-01, -5.8124e-02, -9.1209e-02}},

      {{-7.4592e-02, 5.8199e-02, 9.9358e-02},
       {-8.8107e-02, 1.4357e-01, 6.4734e-02},
       {-1.2323e-02, 4.2730e-02, 4.3563e-02}},

      {{-9.4442e-04, 3.4582e-03, -1.4599e-01},
       {-1.4560e-02, 2.0745e-01, -8.2425e-02},
       {-5.1414e-02, 1.7000e-01, -1.1485e-02}},

      {{1.0229e-01, 2.3716e-02, 1.5422e-01},
       {3.5888e-02, 1.3181e-02, -6.7890e-02},
       {-1.0703e-01, -1.2872e-01, -3.4299e-02}},

      {{3.7702e-01, 4.0428e-01, 3.7091e-01},
       {6.2670e-01, 7.1471e-01, 5.1256e-01},
       {4.1337e-01, 5.0414e-01, 2.8784e-01}},

      {{-1.4145e-01, -9.2752e-02, -9.2322e-02},
       {-4.7919e-02, -1.8346e-01, -1.0274e-01},
       {-1.0895e-01, -1.7868e-01, -1.1118e-01}},

      {{2.1724e-01, 1.8998e-01, 1.2645e-01},
       {2.7257e-01, 1.8827e-01, 1.9378e-01},
       {1.2782e-01, 1.7109e-01, 1.5758e-01}}},

     {{{-3.5426e-01, -2.5917e-01, -4.0370e-01},
       {-3.3815e-01, -3.9702e-01, -4.3777e-01},
       {-3.6388e-01, -3.0925e-01, -3.1832e-01}},

      {{-7.5689e-02, -4.1863e-02, -2.1664e-02},
       {-7.4203e-02, -3.3407e-02, -6.1331e-02},
       {2.3478e-02, -1.6121e-02, -4.8932e-02}},

      {{-2.1281e-02, -2.7084e-02, 3.1885e-02},
       {-1.2119e-01, -1.8332e-01, -4.6299e-02},
       {-5.4145e-02, -1.0330e-01, -1.2261e-01}},

      {{4.0430e-01, 3.7070e-01, 4.2407e-01},
       {4.3776e-01, 4.7425e-01, 4.2218e-01},
       {2.7619e-01, 3.2343e-01, 3.7561e-01}},

      {{-1.4827e-02, -1.8492e-02, 4.8723e-02},
       {-2.9673e-02, -3.9301e-02, -5.2830e-02},
       {1.0677e-01, 1.2056e-02, 2.3936e-02}},

      {{-2.4836e-02, 5.5734e-02, 5.9839e-02},
       {-2.5002e-02, 5.1570e-02, 1.4777e-01},
       {5.9187e-02, 1.5118e-01, -6.3363e-03}},

      {{-1.9177e-01, -1.5234e-01, -1.5134e-01},
       {-1.4768e-01, -5.1953e-02, -5.8905e-02},
       {-1.0679e-02, -8.9141e-02, -9.2202e-02}},

      {{9.4943e-02, 5.9016e-02, 2.3888e-02},
       {1.4322e-01, -6.8677e-03, 6.3714e-02},
       {2.9780e-02, -3.2347e-03, 1.1039e-01}},

      {{7.6155e-02, -5.2803e-02, -1.6050e-02},
       {-9.3536e-02, 4.5218e-02, -6.4596e-03},
       {-3.9466e-03, -4.4967e-03, -7.6094e-03}},

      {{-1.0276e-01, -2.5446e-02, -2.9508e-02},
       {5.5973e-02, 6.9014e-03, -8.3946e-02},
       {-1.0716e-02, -3.9139e-02, -8.9318e-02}},

      {{2.6956e-02, -2.7476e-02, -2.7684e-02},
       {4.7358e-02, -3.8076e-02, 4.0847e-03},
       {2.6056e-02, 2.0439e-02, 1.4683e-02}},

      {{-9.1721e-02, 8.2759e-03, 1.5943e-02},
       {1.9114e-02, -1.3169e-01, 5.8657e-03},
       {-4.1273e-02, -2.5270e-02, -1.0620e-01}},

      {{-5.0179e-02, -6.9791e-02, 4.8943e-02},
       {-1.7031e-02, -8.0634e-02, -1.0356e-02},
       {-3.8167e-02, -3.6974e-02, -7.5445e-02}},

      {{-1.1284e-01, -2.1977e-01, -1.8287e-01},
       {-2.3590e-01, -1.6979e-01, -2.1596e-01},
       {-1.5892e-01, -9.5805e-02, -1.4266e-01}}},

     {{{-2.7416e-02, -9.1160e-02, -2.0578e-02},
       {-9.7931e-03, -1.0894e-01, -8.3263e-02},
       {1.2558e-02, -7.4189e-02, -9.2977e-02}},

      {{-1.2056e-02, -1.7520e-02, -1.1298e-01},
       {-1.1117e-01, -1.0576e-01, -1.0286e-01},
       {4.5770e-03, -8.8516e-02, -1.2397e-01}},

      {{-3.2320e-02, -6.8514e-02, -8.6489e-02},
       {-2.7416e-02, -1.2094e-01, -5.2088e-02},
       {-1.0636e-01, 3.9154e-03, -4.3427e-02}},

      {{-1.6645e-02, -9.3338e-02, -8.1940e-02},
       {-8.8751e-02, 6.5705e-03, -6.3525e-03},
       {-1.3278e-01, -1.5240e-02, -5.8443e-02}},

      {{-2.6380e-02, -3.5240e-02, -3.0476e-02},
       {-9.1368e-02, -1.1957e-02, -7.0993e-02},
       {-1.0413e-01, -1.4737e-02, -1.0371e-01}},

      {{-6.3249e-02, -1.5953e-02, -1.3907e-01},
       {-1.0185e-01, -3.1717e-02, -9.7350e-02},
       {-8.8412e-02, -1.1944e-01, 2.0953e-02}},

      {{-4.0948e-02, -8.7231e-02, -1.1387e-01},
       {-8.2383e-03, -1.2782e-01, -9.1701e-02},
       {-1.4308e-01, -8.2979e-02, -5.2709e-02}},

      {{1.3149e-01, 7.7746e-02, -3.4252e-02},
       {-7.5853e-02, 2.2514e-02, -8.0214e-03},
       {-1.2192e-01, -1.0703e-03, -1.7710e-02}},

      {{1.4270e-02, -1.1153e-02, 3.8020e-02},
       {7.8681e-02, -9.8215e-03, 1.3125e-01},
       {3.2963e-02, -3.6781e-02, 8.7092e-02}},

      {{-2.7287e-02, -7.9447e-02, -1.4824e-01},
       {-1.1822e-01, -1.1764e-01, 2.7139e-02},
       {-7.6897e-02, 3.8850e-03, -5.1972e-02}},

      {{-5.9153e-02, -9.5624e-02, 2.1194e-02},
       {-7.2636e-02, -1.3271e-02, -5.9872e-02},
       {7.7427e-04, -1.4546e-01, 7.7633e-03}},

      {{1.9816e-02, -6.2228e-02, -1.2201e-01},
       {-1.2289e-01, -1.4406e-01, -3.4532e-02},
       {-1.4423e-01, -2.7432e-02, -3.9683e-02}},

      {{-8.5762e-04, 1.8864e-02, 8.9052e-03},
       {-3.1971e-03, -3.1420e-02, 1.9970e-02},
       {-7.9335e-02, -5.5419e-02, -1.0277e-01}},

      {{-9.9212e-02, -1.4039e-01, -3.3398e-02},
       {-8.9353e-02, -1.0011e-01, 3.5145e-03},
       {-1.2385e-01, -1.3380e-01, -1.3128e-01}}},

     {{{6.7560e-02, 1.1339e-01, 3.5013e-02},
       {1.8594e-01, 1.4435e-01, 1.9505e-01},
       {6.0963e-02, 1.7397e-01, 6.9162e-02}},

      {{-2.3540e-01, -3.8575e-01, -3.6800e-01},
       {-2.1249e-01, -1.4846e-01, -2.6891e-01},
       {-3.5205e-01, -2.4434e-01, -1.3178e-01}},

      {{-4.8256e-01, -4.0265e-01, -3.2837e-01},
       {-5.2037e-01, -3.5772e-01, -4.0152e-01},
       {-4.3340e-01, -4.2394e-01, -2.7704e-01}},

      {{6.0980e-01, 4.8434e-01, 5.1404e-01},
       {4.1132e-01, 5.2214e-01, 4.6603e-01},
       {4.1676e-01, 4.8468e-01, 4.9966e-01}},

      {{-7.3332e-02, -1.2236e-01, -1.0881e-01},
       {2.0971e-02, -8.9774e-02, -8.4098e-04},
       {-5.3210e-02, -2.2146e-02, -8.2183e-02}},

      {{-2.4387e-02, -3.6907e-02, -1.3725e-01},
       {-1.3259e-01, -1.2281e-01, -5.9824e-02},
       {-1.1725e-01, -3.2800e-02, -8.7295e-02}},

      {{1.9053e-02, 8.1553e-02, 1.6978e-01},
       {4.5529e-03, -1.1282e-02, -2.9593e-03},
       {6.6308e-02, -3.4340e-02, 5.9871e-02}},

      {{-3.1643e-02, 1.1599e-01, 7.1286e-02},
       {-3.8241e-02, 7.2428e-02, 1.2002e-01},
       {5.2090e-02, 4.8720e-03, 1.8248e-02}},

      {{7.8286e-03, -6.9121e-02, -8.4304e-02},
       {8.1330e-02, 5.6542e-02, -3.6200e-02},
       {-5.1536e-02, -8.6092e-02, -3.2761e-02}},

      {{-5.5048e-02, -1.1427e-01, 1.8742e-02},
       {-5.0876e-02, -6.8424e-02, -2.9432e-02},
       {3.7608e-02, -1.4757e-02, -6.8556e-02}},

      {{-2.2531e-02, -9.9645e-02, -2.3605e-02},
       {-9.3406e-02, 4.2586e-02, -5.2750e-02},
       {1.4439e-02, -4.6705e-02, -8.1817e-02}},

      {{-3.9340e-01, -3.3642e-01, -3.7712e-01},
       {-3.5579e-01, -2.8166e-01, -2.3135e-01},
       {-4.1455e-01, -2.0193e-01, -1.9661e-01}},

      {{5.1137e-02, -1.0435e-01, 4.0814e-04},
       {-1.7313e-02, 3.2322e-02, -7.6641e-03},
       {-2.5710e-02, -5.1158e-02, -7.8139e-03}},

      {{-5.8014e-02, 3.5186e-02, 5.6094e-03},
       {-1.5774e-02, -7.9399e-02, -8.9052e-02},
       {-6.0821e-02, -1.0099e-01, -1.3078e-01}}},

     {{{1.6427e-01, 2.9878e-01, 2.5563e-01},
       {7.8839e-02, 1.1437e-01, 2.1390e-01},
       {1.3099e-01, 1.3720e-02, 1.4982e-01}},

      {{-2.8778e-01, -3.0217e-01, -3.0627e-01},
       {-3.3156e-01, -2.9031e-01, -3.6852e-01},
       {-3.3464e-01, -3.7535e-01, -3.7826e-01}},

      {{-2.9114e-01, -4.1671e-01, -3.5911e-01},
       {-4.0402e-01, -3.4561e-01, -2.8413e-01},
       {-2.8851e-01, -3.0895e-01, -3.3582e-01}},

      {{1.2191e-01, 8.8322e-02, 1.4840e-01},
       {1.4463e-01, 1.8238e-01, 5.5511e-02},
       {-6.9022e-02, 1.1536e-01, -7.1834e-02}},

      {{-2.2498e-01, -1.1344e-01, -2.5656e-01},
       {-2.8861e-01, -1.4426e-01, -2.4790e-01},
       {-9.2871e-02, -1.2453e-01, -1.4723e-01}},

      {{-6.0204e-01, -5.4418e-01, -5.4971e-01},
       {-4.8055e-01, -5.7835e-01, -5.5915e-01},
       {-6.2467e-01, -5.3489e-01, -5.2227e-01}},

      {{5.4011e-01, 4.8314e-01, 5.8738e-01},
       {4.6620e-01, 4.7627e-01, 4.4960e-01},
       {4.0275e-01, 3.5624e-01, 3.9358e-01}},

      {{-1.4260e-01, -1.3312e-02, -1.0939e-01},
       {-1.2807e-01, -1.7286e-01, -1.6179e-02},
       {-2.4978e-02, -1.3352e-01, -5.0939e-03}},

      {{4.0959e-02, -3.6016e-02, 2.3513e-02},
       {-3.0299e-02, -2.1118e-03, 6.9108e-02},
       {-2.1845e-02, -2.1257e-02, 4.0547e-02}},

      {{-8.8296e-02, -1.0592e-02, -1.1867e-01},
       {-1.2495e-01, -8.0220e-02, 3.9938e-02},
       {-3.2969e-02, -2.8840e-02, -5.3572e-02}},

      {{-1.1977e-02, -1.1887e-01, -1.2578e-01},
       {-7.8712e-02, -1.1416e-01, -3.6442e-02},
       {4.2383e-02, 1.1417e-03, -7.8252e-02}},

      {{-1.8911e-01, -2.4384e-01, -4.1918e-01},
       {-3.7043e-01, -3.8139e-01, -3.0224e-01},
       {-2.5012e-01, -2.9895e-01, -3.7393e-01}},

      {{-5.9719e-02, -4.0188e-02, -1.2391e-01},
       {-1.2726e-02, -1.7355e-02, 1.7611e-02},
       {-6.8099e-02, -7.9171e-02, -1.4276e-01}},

      {{3.9321e-01, 4.0616e-01, 4.0634e-01},
       {3.9555e-01, 4.3284e-01, 3.2273e-01},
       {3.9917e-01, 2.8420e-01, 2.5392e-01}}},

     {{{1.1504e-01, 1.9529e-01, 3.0922e-02},
       {2.1134e-01, 1.8069e-01, 2.3202e-01},
       {2.3935e-02, 1.7681e-01, 7.5327e-03}},

      {{1.1591e-01, 5.9938e-02, -5.3052e-02},
       {1.8573e-01, 2.2475e-01, 8.0995e-02},
       {-7.2025e-02, -6.6879e-03, -1.4475e-01}},

      {{-9.8774e-02, -8.1726e-02, -1.3853e-01},
       {7.9145e-02, 3.6196e-02, 1.1834e-01},
       {4.8711e-03, 3.7009e-02, -1.5554e-02}},

      {{-1.2697e-02, -6.6956e-02, -8.1122e-02},
       {8.7199e-03, 1.5678e-02, -1.4111e-01},
       {-3.2728e-03, -1.2525e-02, 2.9868e-02}},

      {{-6.8407e-02, -3.7828e-02, 2.6639e-02},
       {-1.2902e-01, -2.1258e-03, -6.6919e-02},
       {-1.6536e-01, -7.1640e-03, -4.3234e-02}},

      {{-2.6452e-01, -2.9485e-01, -4.1775e-01},
       {-1.9601e-01, -2.1175e-01, -2.7581e-01},
       {-3.3289e-01, -3.5785e-01, -4.2068e-01}},

      {{4.4271e-01, 4.2800e-01, 3.3429e-01},
       {3.9958e-01, 5.0149e-01, 4.3703e-01},
       {3.6030e-01, 3.0713e-01, 3.3405e-01}},

      {{-5.6180e-02, 1.3306e-02, -2.0387e-02},
       {-7.8740e-02, -5.0849e-02, 1.1110e-02},
       {-1.0770e-01, -4.5031e-02, -6.3241e-02}},

      {{-3.6269e-03, 2.0551e-02, 3.0729e-02},
       {7.4030e-02, -3.2052e-02, 3.1574e-02},
       {-2.0647e-02, 5.1235e-02, 4.8182e-02}},

      {{-8.0071e-02, -8.8633e-02, -1.1265e-01},
       {-1.2288e-01, -8.0137e-03, -9.1895e-03},
       {-7.1044e-02, -3.2525e-02, 3.7963e-02}},

      {{-9.0187e-02, -7.2481e-02, 2.8456e-02},
       {5.9745e-02, -2.5500e-02, -2.7014e-02},
       {-3.2911e-03, -5.5879e-02, -3.8592e-02}},

      {{-1.7912e-02, -8.9419e-02, -8.0677e-04},
       {6.6947e-02, 2.0544e-01, 9.0183e-02},
       {-1.2491e-01, -1.1321e-02, -1.2861e-01}},

      {{-6.5175e-02, 8.9584e-03, 3.0895e-02},
       {-1.3531e-01, 3.2665e-02, -1.1974e-01},
       {-2.2863e-02, 2.4241e-02, 1.3922e-02}},

      {{3.3190e-01, 4.4901e-01, 2.8356e-01},
       {3.6184e-01, 3.5868e-01, 4.0919e-01},
       {3.5953e-01, 3.3724e-01, 2.4910e-01}}},

     {{{-4.4600e-02, -3.5936e-02, 2.3807e-02},
       {-1.9926e-02, -1.1953e-02, -8.1403e-02},
       {-5.1528e-02, 7.1393e-04, -1.1140e-04}},

      {{-8.3609e-02, -1.2719e-01, -1.2890e-01},
       {-6.6869e-02, 1.3028e-03, -7.3103e-02},
       {-4.3697e-02, -7.1122e-02, -1.3541e-01}},

      {{-3.3831e-02, -7.8175e-03, -1.0939e-01},
       {-1.3222e-01, -6.5936e-02, 1.4893e-02},
       {-2.5589e-02, 3.7616e-02, -1.2725e-01}},

      {{9.1781e-03, -4.1223e-02, 3.2356e-02},
       {-1.3665e-02, -5.0244e-02, -6.8132e-02},
       {-7.7545e-02, -5.4150e-02, -6.1709e-02}},

      {{6.0265e-03, -1.2907e-01, 1.6816e-02},
       {-1.3569e-01, 1.9517e-02, 1.3350e-02},
       {-5.0438e-02, -9.7887e-02, -1.0915e-01}},

      {{-6.5709e-02, -8.6708e-02, -8.7673e-03},
       {-1.5666e-02, -1.3059e-01, -3.3457e-02},
       {-8.3907e-02, 2.1167e-03, -9.4613e-02}},

      {{-1.8293e-02, 8.8390e-02, -7.1078e-02},
       {-6.4170e-02, -2.7078e-02, -1.7784e-02},
       {-7.0648e-02, -9.5104e-02, 3.2140e-02}},

      {{8.8473e-02, 1.4686e-02, -6.9009e-02},
       {-2.4516e-02, -1.0638e-01, -8.6376e-02},
       {-1.0990e-01, 3.8136e-02, -7.7259e-02}},

      {{2.9026e-02, -6.5966e-02, -1.2244e-02},
       {1.8339e-02, 1.8515e-02, -2.4836e-03},
       {-6.7491e-02, -7.1595e-02, 5.9976e-02}},

      {{-9.3827e-02, -3.8536e-02, 4.6138e-02},
       {-2.6061e-02, -6.3153e-03, -1.1565e-01},
       {1.9056e-02, -9.0608e-02, -1.2991e-01}},

      {{-1.2877e-01, 2.8249e-02, -5.9314e-02},
       {-8.1513e-02, -2.3589e-02, -1.1048e-01},
       {-3.2950e-02, -4.7394e-02, -8.3397e-03}},

      {{1.1217e-02, -1.0767e-01, -8.2303e-03},
       {-1.0996e-01, -1.4460e-01, 1.1964e-04},
       {1.6478e-02, 2.5717e-02, -5.1327e-02}},

      {{-5.5778e-02, -6.4512e-02, -5.9971e-02},
       {2.5865e-02, 4.7105e-02, -9.2107e-02},
       {-5.6622e-02, 1.5909e-02, -7.2189e-02}},

      {{-1.2876e-01, -8.5148e-02, -4.0936e-02},
       {-1.8562e-02, -3.9225e-02, -2.8655e-02},
       {-2.5873e-02, -5.7592e-02, -1.4162e-01}}},

     {{{-5.2093e-02, -2.6806e-02, 3.1925e-02},
       {-2.8515e-02, -9.8428e-02, 1.1954e-02},
       {-3.1202e-02, -5.2796e-02, 6.4329e-02}},

      {{-4.0278e-04, -7.4431e-02, 7.1197e-03},
       {-1.3139e-01, -1.9622e-02, -3.3811e-02},
       {-1.1544e-01, -1.2797e-01, -7.3923e-02}},

      {{-1.3319e-01, -7.1683e-02, 5.8328e-04},
       {-1.1948e-01, 6.5138e-03, -1.4064e-01},
       {-6.2281e-02, -1.4858e-01, -5.7214e-02}},

      {{1.0400e-02, -1.2977e-01, 9.5088e-03},
       {-1.3661e-01, -2.3560e-02, -1.1177e-01},
       {-1.4427e-01, -8.0336e-02, -9.1049e-02}},

      {{-5.8884e-02, -1.6087e-01, 1.0769e-02},
       {1.4567e-02, -7.7520e-02, 1.2080e-01},
       {-6.9350e-02, 2.5144e-02, -8.0473e-02}},

      {{-2.6500e-02, -1.3901e-01, -3.1652e-02},
       {-1.2710e-01, -1.2155e-01, -8.6225e-02},
       {-3.4638e-03, -6.3975e-02, -5.5925e-02}},

      {{-1.4084e-01, 2.4003e-02, -7.4450e-02},
       {-1.0686e-01, 2.2051e-02, -1.4596e-01},
       {-1.4337e-01, 2.5479e-02, -3.6873e-02}},

      {{6.0592e-02, -8.5060e-02, -1.0946e-01},
       {3.0690e-05, 1.3622e-01, 6.5493e-02},
       {-5.5827e-02, 7.3875e-02, 3.8231e-02}},

      {{3.3376e-03, 1.8824e-02, 7.8649e-02},
       {7.3057e-02, -5.6272e-02, -5.0593e-02},
       {1.9406e-02, 7.5830e-02, 2.8774e-02}},

      {{-3.0468e-02, -9.3608e-04, 1.5131e-02},
       {-1.1376e-01, -3.8342e-02, -7.3963e-02},
       {-8.4461e-02, -1.2394e-01, -1.5695e-03}},

      {{-1.3716e-01, -1.8718e-02, 9.9168e-02},
       {-1.5972e-02, 8.1863e-02, 9.7980e-02},
       {-8.6386e-02, 1.2042e-01, 4.4037e-03}},

      {{-1.6431e-02, -1.0582e-01, -4.6179e-02},
       {-3.6775e-02, -2.6683e-02, 3.3852e-02},
       {-6.6577e-02, -4.3127e-02, -4.5267e-02}},

      {{-1.0331e-01, -1.2661e-01, -1.1882e-01},
       {-5.3207e-02, -1.3217e-02, -5.9626e-02},
       {-6.2049e-03, -6.2105e-02, -3.3895e-02}},

      {{-9.9708e-03, -5.6968e-02, -1.4030e-01},
       {-7.4318e-02, 2.1115e-02, 1.8599e-02},
       {-4.1528e-02, -6.5360e-02, -8.3738e-02}}}};

float layerconv3_0_bias[24] =
    {-0.1876, -0.0388, -0.0097, 1.7967, -0.2838, -0.1311, -0.3399, -0.2810,
     1.9413, -0.0656, -0.0420, -0.0364, -0.0790, 0.5048, 0.9500, -0.3875,
     -0.1396, -0.1533, -0.0260, -0.1059, -0.0802, -0.2528, -0.1369, -0.0824};

float layerfc_weight[12][24] =
    {{0.0369, 0.1063, -0.0137, 0.1868, 0.1940, 0.0411, -0.5627, -0.0700,
      -0.1462, -0.0728, 0.0644, -0.2520, -0.0228, -0.1279, 0.3822, -0.0785,
      -0.9555, -0.3279, -0.1274, 0.0971, 0.2867, -0.0847, -0.1164, -0.0295},
     {-0.3129, 0.0086, 0.1373, 0.5688, -1.2048, -0.3358, -0.1372, -0.6893,
      1.1151, 0.0820, -0.7186, 0.2456, 0.1361, -0.1211, 0.2602, -0.3787,
      0.1447, -0.3462, -0.0923, -0.6131, -0.3017, -1.2101, -0.2224, -0.1074},
     {-0.8000, -0.0269, -0.1103, -0.3038, -1.3047, -1.0645, -0.9228, 0.5436,
      -0.2696, 0.0550, -1.2497, -0.1540, -0.1531, 0.3492, -1.0143, -0.3972,
      -1.6948, 0.3289, -0.2421, 0.3488, -0.1423, -1.7062, -0.2434, 0.0107},
     {0.0193, -0.0971, -0.2067, -0.0101, 0.0265, 0.1355, 0.0098, -0.4890,
      -0.2709, -0.2228, 0.2539, -0.0318, 0.0304, -0.5520, 0.2949, 0.1325,
      0.1302, -0.1449, -0.0590, -0.5756, 0.1387, 0.1438, -0.1437, -0.0742},
     {-0.7383, -0.0949, -0.1167, -0.2954, -0.4065, -0.6172, -0.8283, 0.3464,
      -0.3902, 0.0469, -1.1376, -0.0691, 0.0659, 0.2396, -0.3225, -0.7221,
      -1.5984, 0.2142, 0.1446, 0.3690, 0.3914, -0.5479, -0.1389, 0.1508},
     {0.1020, 0.0776, -0.1643, -0.0920, 0.0528, 0.1372, 0.2801, -0.3835,
      -0.2244, -0.0081, 0.1685, 0.1499, 0.0989, -0.3423, -0.4543, 0.1582,
      0.2312, -0.0177, -0.1206, -0.2929, -0.3645, 0.0401, 0.0898, 0.0116},
     {-0.0544, 0.0651, -0.0549, 0.0163, -0.4505, -0.4624, 0.2282, 0.0397,
      0.3041, -0.2585, -0.1089, 0.0623, 0.1341, -0.1144, 0.4172, 0.1287,
      0.3722, -0.2456, -0.2912, -0.1328, -0.9442, -0.0935, -0.0725, 0.1372},
     {-0.0562, 0.0960, -0.0162, -0.0469, 0.2896, 0.1810, -0.1902, -0.4898,
      -0.8683, 0.1684, 0.0104, 0.1179, 0.0961, 0.0350, 0.1623, 0.0392,
      -0.1989, -0.3135, -0.0569, -0.1633, 0.2845, 0.0433, -0.0849, -0.1915},
     {-0.3703, -0.0217, 0.1356, 0.8611, -0.8372, -0.3255, -0.2022, 0.2247,
      0.7554, -0.0074, -0.4693, 0.0149, -0.1454, 0.2432, 0.1023, -0.3928,
      -0.4708, 0.1290, 0.0524, 0.1620, -0.6507, -0.6763, -0.2049, 0.0375},
     {-0.3805, 0.1150, -0.0683, -0.5647, 0.0677, 0.1431, -0.6536, 0.2351,
      -0.8471, -0.0524, -0.0827, 0.0033, -0.0934, 0.2533, -0.2782, -0.3745,
      -0.7851, 0.1017, -0.0933, 0.0711, 0.2295, -0.0907, -0.2063, 0.0283},
     {0.1399, 0.0866, 0.0619, -1.4523, 0.2001, 0.1318, 0.3345, -0.4405,
      -1.4331, 0.0756, 0.0812, -0.1213, 0.0696, -0.7787, -0.3374, 0.2256,
      0.2434, -0.0138, -0.0141, -0.4785, -0.5527, 0.0600, -0.0128, 0.0627},
     {-0.7470, 0.0372, 0.0456, 1.3492, -0.8011, -0.2862, -1.2212, -1.0866,
      1.5881, -0.0027, -0.7812, -0.2326, 0.0470, 0.2963, 1.2232, -0.4912,
      -1.8237, -0.5424, -0.1462, -0.9100, -1.2942, -0.9683, -0.0170, -0.1066}};

float layerfc_bias[12] =
    {-0.1294, 0.5255, -0.0110, 0.1197, -0.0352, 0.0466, 0.2175, -0.5831,
     0.2749, -0.4793, -1.1401, 0.7376};
